2550-KONTICH,0.335162,-0.166257,-0.10676,0.0235276,-0.62397,0.22358,-0.00256637,0.28551,-0.03952,0.0596499,-0.092293,0.231961,-0.470268,-0.131524,-0.146049
9130-VERREBROEK,0.210228,-0.456137,0.402763,-0.035279,0.186875,0.336866,0.357864,0.0448317,-0.226232,-0.143939,0.0468925,0.000984701,-0.261349,-0.382042,-0.132076
3650-DILSEN-STOKKEM,-0.130734,-0.37661,0.173573,0.308563,0.126426,-0.260192,0.0254036,0.265558,-0.0933866,-0.0885015,-0.166534,-0.0153079,-0.524512,-0.293981,0.393478
9120-MELSELE,0.217334,-0.196222,0.284173,-0.204902,-0.0293775,0.302258,0.47523,0.0676443,-0.153843,-0.0490514,0.165362,0.184793,-0.207233,-0.57283,-0.101167
9520-SINT-LIEVENS-HOUTEM,0.196385,-0.118534,0.132349,-0.395624,-0.303547,-0.364658,-0.00374103,0.0448666,-0.543416,-0.298759,-0.137893,-0.112007,0.132475,-0.120505,0.313073
8600-WOUMEN,0.129632,0.113154,0.409624,-0.176405,0.00060225,-0.00163844,0.416189,0.292754,-0.371567,0.274348,-0.133778,-0.235049,-0.222553,0.40917,0.0955905
8211-AARTRIJKE,0.346861,0.179094,0.371486,0.192733,0.0291294,0.00314237,0.0430325,0.172901,-0.176087,-0.291499,-0.26974,-0.0785959,-0.350656,0.561753,0.0801147
2350-VOSSELAAR,-0.03529,0.241519,0.0768192,-0.42527,-0.0735002,0.331645,0.016395,0.113889,-0.328088,-0.420507,0.423052,0.0111262,-0.315998,0.248178,0.00505293
9320-EREMBODEGEM,0.457598,-0.199577,0.103406,-0.033696,-0.206844,-0.289274,-0.0295561,0.150817,-0.648172,-0.0120603,0.0657352,-0.232297,0.0352851,-0.0175318,0.32978
Regio Eeklo - Zelzate,0.347691,-0.283868,0.400083,-0.0529508,0.309421,-0.226224,-0.237419,0.259149,-0.0963569,-0.47785,-0.320976,0.0869762,-0.00321223,-0.116213,0.0590221
8630-VEURNE,0.212148,0.430726,0.548255,-0.0948003,-0.0648667,0.158776,-0.10332,0.155352,-0.354987,0.240336,-0.296871,0.03515,-0.251202,0.151989,0.190587
8840-WESTROZEBEKE,-0.0891126,0.11137,0.572408,-0.107778,-0.265501,-0.0582803,0.449958,0.244231,-0.295334,-0.113546,-0.268572,-0.0880987,-0.125868,0.32945,0.00149045
Regio Tongeren - Maasmechelen,-0.133789,0.0561106,-0.00271218,-0.0156267,0.177563,-0.342695,0.201733,0.237468,-0.0639255,-0.0918086,0.0007274,-0.118389,-0.591674,-0.535474,0.263252
2140-BORGERHOUT,0.226762,-0.042014,-0.178571,-0.438749,-0.19268,0.154981,0.315958,0.114392,0.122948,-0.0651705,-0.0690406,0.103709,-0.606256,-0.225824,-0.30812
1800-VILVOORDE,0.535851,-0.0296576,-0.149755,0.0866426,-0.314641,-0.165949,0.105167,0.428657,0.338045,0.0981555,0.0621986,-0.0448605,-0.243278,0.0162712,0.414086
1640-SINT-GENESIUS-RODE,0.390993,0.456111,-0.0624277,-0.397837,-0.268211,-0.318099,-0.198195,0.231954,0.0148585,0.0991704,0.250389,-0.0210255,-0.170449,0.228062,0.237591
3370-BOUTERSEM,-0.100409,-3.86155e-05,0.0702404,-0.418948,0.0632915,-0.0395715,0.113199,0.834977,0.0458364,-0.0246243,0.0830944,-0.191042,0.07135,-0.02567,0.205026
9190-KEMZEKE,0.0976943,-0.329684,0.565194,-0.233764,0.150454,0.23435,0.0989812,0.107035,0.0185192,-0.216196,0.262802,0.0908012,-0.04979,-0.530884,-0.0124264
1980-ZEMST,0.308449,-0.282427,-0.145022,0.134632,-0.440519,0.0136349,-0.125098,0.403456,0.343843,-0.113457,-0.170591,-0.219089,-0.201048,0.0276617,0.404823
9130-KALLO,0.273596,-0.4332,0.285598,-0.0125927,0.223572,0.226218,0.317871,-0.0466524,-0.179878,-0.206795,0.0668229,0.0751993,-0.401085,-0.400123,-0.212538
1652-ALSEMBERG,0.144201,0.38894,0.0510161,-0.61229,-0.29744,-0.167603,-0.0568093,0.164528,0.0620154,0.204178,0.120844,-0.161203,-0.162891,0.243479,0.362811
8800-BEVEREN (ROESELARE),0.0828533,-0.0484937,0.309884,0.146775,-0.253133,-0.0886508,0.694138,0.0132984,-0.0794543,-0.139851,0.0251376,-0.147654,-0.318219,0.409255,-0.0470763
2440-GEEL,-0.397636,0.0503634,0.0520307,-0.269339,-0.355094,0.118285,0.202582,0.0799603,-0.0870481,-0.383721,0.352122,0.32227,-0.435944,-0.0470803,0.0406476
9890-GAVERE,0.110082,0.00831287,0.326692,-0.190206,-0.362825,-0.262566,-0.125811,-0.114623,-0.171555,-0.55703,-0.0670147,-0.33209,-0.0279007,-0.399873,-0.0138492
1040-ETTERBEEK,0.456658,0.243603,-0.0747823,-0.280126,-0.142092,-0.23088,0.171232,0.106218,0.429608,-0.0696309,0.444232,0.0241041,-0.241404,0.0480705,0.293323
3740-MUNSTERBILZEN,-0.0513864,0.0236895,-0.0702899,-0.0270706,0.0363804,-0.517986,0.136792,0.282012,0.0305949,0.0945925,-0.0139312,-0.152828,-0.60492,-0.471722,0.0369495
2321-MEER,-0.0905739,-0.149334,0.071602,-0.321138,0.0658694,0.534506,0.0947077,0.092669,-0.359772,-0.276655,0.0134194,-0.218071,-0.462394,0.191486,0.222402
8950-HEUVELLAND,-0.0183819,0.0221838,0.57752,-0.412382,-0.030865,0.149844,0.395264,0.317122,-0.130834,0.137707,-0.41022,0.0831683,0.00540694,0.0366694,0.0521828
8800-ROESELARE,0.117737,0.24001,0.354351,0.0667159,-0.300904,-0.204485,0.241842,0.138046,-0.0338473,-0.0767919,-0.629477,-0.0581999,-0.272963,0.266457,0.190885
9920-LOVENDEGEM,0.43866,0.0442358,0.343003,-0.184887,0.12701,-0.370683,-0.0741001,0.145402,-0.0788645,-0.603799,-0.272264,0.125204,0.0768137,-0.0351839,0.0766931
3660-OPGLABBEEK,-0.19491,-0.111792,0.00287732,0.222667,0.0221103,-0.417423,0.077657,0.213461,-0.0477913,-0.0960593,-0.102116,-0.0714591,-0.663662,-0.0884052,0.445296
2560-KESSEL,-0.00240976,0.0936099,-0.163234,-0.376214,-0.400192,0.149913,-0.318761,0.502554,-0.0884725,-0.3052,-0.271711,0.212796,-0.191376,-0.134346,-0.107217
1755-GOOIK,0.371524,0.125672,-0.0377618,-0.514418,-0.299913,-0.227988,-0.132838,0.157645,-0.315518,0.140806,0.0848718,-0.367819,-0.0794616,0.120636,0.336096
9200-APPELS,0.404233,-0.11907,0.312726,-0.104513,-0.263831,-0.0569219,0.247166,-0.0186535,-0.339091,0.0741775,0.249912,0.326229,0.0295321,-0.146457,0.517419
3020-WINKSELE,0.0452774,-0.0682646,0.0239705,-0.0275655,-0.0694522,-0.0837356,0.027744,0.76251,0.271909,-0.260539,-0.00889322,0.103088,0.0602027,0.0404276,0.490051
Regio Kalmthout - Schoten - Zoersel,0.114348,-0.300065,-0.131798,-0.431235,0.13015,0.219052,0.0528468,0.134658,-0.341903,-0.240808,-0.305812,0.0732609,-0.558045,0.118363,-0.0922156
2030-ANTWERPEN,0.349037,-0.23731,0.0502659,-0.235221,0.0191787,0.360792,0.116203,0.202085,-0.0795091,-0.0387873,-0.197698,0.127315,-0.636588,-0.212571,-0.256069
1742-SINT-KATHERINA-LOMBEEK,0.412119,-0.067893,0.0676662,-0.484143,-0.171327,-0.166443,0.247395,0.0326305,-0.25828,0.0980697,0.262811,-0.185943,-0.0396323,0.304147,0.43955
Regio Genk,-0.188507,-0.0301036,-0.00675291,0.0933039,0.0421792,-0.402227,-0.0372662,0.270143,-0.117565,-0.134389,0.0904188,-0.153091,-0.651832,-0.393346,0.271616
1570-VOLLEZELE,0.275101,0.00438258,-0.206859,-0.585572,-0.220168,-0.33542,-0.0303915,-0.0407816,-0.307388,-0.0496457,-0.0396437,-0.399561,-0.153247,0.0187456,0.305022
8340-SIJSELE,0.379448,-0.0352163,0.393809,0.102583,0.331989,-0.32487,0.0852259,0.403699,-0.111986,-0.24687,-0.353678,-0.163292,-0.171937,0.207744,-0.0722441
3550-HEUSDEN-ZOLDER,-0.277758,0.138387,0.110921,0.161477,-0.0475603,-0.403538,0.0494797,0.416426,-0.273651,-0.107794,0.303968,0.0883686,-0.488283,-0.284751,0.134702
8531-HULSTE,0.0572527,0.292805,0.264724,0.0588951,-0.567095,-0.0775095,0.367952,-0.0073136,0.204196,-0.287523,-0.140282,-0.345877,-0.329038,0.0161038,-0.0468342
8660-ADINKERKE,0.328093,0.393581,0.539114,-0.0546748,-0.0286508,0.0120069,0.192166,0.00250223,-0.294436,0.393395,-0.0289406,0.039008,-0.393568,0.0426412,-0.0734253
3290-SCHAFFEN,-0.385798,0.165362,0.39961,-0.0888497,-0.251877,-0.236596,-0.191095,0.53487,-0.0725881,-0.207506,0.361564,0.145475,-0.09091,-0.0674869,-0.0342164
8930-LAUWE,-0.0349224,0.216501,0.553401,0.032216,-0.291131,0.174633,0.484415,0.0933313,0.329482,-0.0200141,-0.199189,-0.12987,-0.280275,-0.184974,0.08789
9910-KNESSELARE,0.318529,-0.146018,0.174023,0.0527749,0.254246,-0.437958,-0.0014441,0.192201,-0.0743141,-0.585046,-0.281646,-0.0779829,-0.178595,0.109853,-0.271268
Regio Halle,0.289356,0.30229,-0.0348766,-0.536485,-0.407099,-0.264571,-0.232469,0.150152,-0.0633146,0.0853024,0.165324,-0.237488,-0.154143,0.0890978,0.311175
Regio Sint-Truiden,-0.171277,-0.173018,0.210424,-0.294773,0.268737,-0.391409,0.166019,0.557981,-0.204958,0.217617,0.141783,0.072991,-0.293921,-0.169527,0.123731
9070-DESTELBERGEN,0.400592,0.266574,0.288138,-0.112629,0.0565713,-0.279334,-0.0417159,0.0596869,-0.267789,-0.495201,0.00384408,0.268171,0.0593556,-0.369751,0.238999
3221-NIEUWRODE,-0.109951,-0.223166,0.106794,-0.0959606,-0.312371,-0.0827715,0.198114,0.80021,0.140548,-0.1955,0.19972,0.085094,0.165256,0.0273923,0.0179038
2381-WEELDE,-0.0363734,0.0583171,0.265285,-0.205372,0.0125963,0.476511,-0.0663848,0.0234362,-0.145078,-0.436204,0.359045,-0.0353978,-0.439957,0.298201,0.163006
3580-BERINGEN,-0.394166,0.201013,0.158505,0.104979,-0.219387,-0.204621,-0.0231609,0.358926,-0.0814427,0.0162921,0.272568,-0.000379825,-0.683346,0.00308362,0.0235536
9052-ZWIJNAARDE,0.329252,0.202988,0.339625,-0.237182,-0.0453381,-0.294446,-0.0110917,-0.00887502,0.0217719,-0.640936,0.0478765,0.0208403,0.0402446,-0.398039,0.12561
9310-MOORSEL,0.472603,-0.377766,0.208187,-0.0806731,-0.21545,-0.132751,-0.0586108,0.169263,-0.424234,-0.0493762,0.301633,-0.108709,0.0344509,0.00396929,0.44894
Provincie Antwerpen,0.280961,-0.282766,-0.174842,-0.175371,-0.176058,0.104915,0.0204145,0.246707,0.0460307,-0.253743,0.0683233,0.136905,-0.700238,-0.117062,-0.287303
9050-GENTBRUGGE,0.51407,0.245751,0.190669,-0.316454,0.164041,-0.331698,0.363123,-0.00598346,-0.233402,-0.340003,-0.0475664,0.0865761,0.000858173,-0.253904,0.160339
3010-KESSEL-LO,0.0469917,0.103649,0.0341591,-0.406235,0.008075,-0.00578015,0.0353082,0.700745,0.320848,-0.10472,0.172728,0.149408,0.0256945,-0.122472,0.383066
3270-SCHERPENHEUVEL,-0.413324,0.0749831,0.114623,-0.23216,-0.348348,-0.298203,0.0260364,0.580969,-0.0659825,-0.259205,0.25518,0.0444408,-0.0323895,0.210798,0.154639
3945-HAM,-0.353785,-0.0868438,0.319067,0.095518,-0.185852,-0.158928,-0.146726,0.225322,-0.172066,-0.0963847,0.405618,0.262708,-0.58511,-0.0518619,-0.0823934
9971-LEMBEKE,0.35431,-0.287951,0.334201,0.0577222,0.0498802,-0.354639,-0.115098,0.121281,-0.0307937,-0.483996,-0.47339,0.129737,0.00036014,-0.0544084,0.203033
8310-ASSEBROEK,0.452587,0.129452,0.286344,0.134564,0.241808,-0.326133,0.165482,0.437432,0.0746241,-0.216254,-0.18902,-0.180539,-0.283193,0.191316,-0.23934
2910-ESSEN,0.167075,-0.391765,-0.0193528,-0.248836,0.0620463,0.061169,0.191573,0.19829,-0.548877,0.00381771,-0.131553,0.107623,-0.378697,0.417263,-0.158153
8930-MENEN,-0.0990495,0.49021,0.307429,-0.313841,-0.233299,-0.0821609,0.497526,0.227286,0.0955909,-0.153718,-0.34365,-0.0165614,-0.185066,-0.0205647,-0.103421
8570-ANZEGEM,-0.0765118,0.210828,0.455542,-0.14623,-0.522192,-0.208342,-0.0555886,-0.116104,-0.159195,-0.324635,-0.113372,-0.409617,-0.219194,-0.133176,-0.104797
3210-LUBBEEK,-0.121233,-0.0983862,-0.00636512,-0.432622,-0.00583369,-0.0425083,0.154984,0.800367,0.0746574,-0.1767,0.140137,-0.0325505,0.069757,-0.0123831,0.24384
9700-OUDENAARDE,0.163193,0.148192,0.218926,-0.241034,-0.320267,-0.391528,0.157887,-0.405146,-0.35081,-0.236752,-0.0856318,-0.196629,-0.303682,-0.28102,-0.064298
200003-Shanghai,-0.0225947,-0.615957,0.320943,-0.145636,0.0555388,-0.283133,0.322204,0.0747421,0.167498,0.0655147,-0.144274,-0.141041,-0.442653,0.140371,-0.1205
Brussel,0.483919,0.207616,-0.0133667,-0.216231,-0.146149,-0.468839,0.050199,0.101427,0.385407,0.0354211,0.309972,0.0385787,-0.380835,0.0612803,0.160162
8970-POPERINGE,0.0214887,0.111529,0.488242,-0.140024,-0.113129,0.103882,0.535278,0.442379,-0.275014,0.144957,-0.338816,0.0968785,0.0350399,-0.009944,0.0338851
1932-SINT-STEVENS-WOLUWE,0.385135,0.115448,0.0117485,-0.170621,-0.0976154,-0.150557,0.0561167,0.39611,0.579603,-0.00170654,0.124284,-0.0710354,-0.204218,0.0505538,0.464917
2431-VEERLE,-0.261561,0.0680249,0.0556513,-0.230993,-0.331408,-0.139227,-0.020179,0.455891,0.127094,-0.0930395,0.366405,0.329659,-0.374639,0.279392,-0.216549
9600-RONSE,0.130175,0.0612654,0.272884,-0.332505,-0.453173,-0.268891,-0.0873689,0.0353202,-0.147386,-0.0386876,-0.392697,-0.366471,-0.0223827,-0.432033,0.0940306
8750-WINGENE,0.17128,-0.027312,0.377931,0.241197,-0.01227,-0.343489,0.356563,0.226687,-0.196353,-0.434352,-0.18261,-0.211282,-0.203933,0.324361,-0.142299
8020-RUDDERVOORDE,0.246395,-0.234155,0.318196,0.279246,0.025645,-0.193701,0.14788,0.110774,-0.270924,-0.310224,-0.183669,-0.349809,-0.356886,0.410041,-0.108054
8647-LO-RENINGE,0.00364751,0.0438581,0.707858,-0.191223,0.0468858,0.110864,0.330463,0.147109,-0.387895,0.132983,-0.224113,0.0811859,-0.161688,0.227561,0.110483
9100-SINT-NIKLAAS,0.485335,-0.0612086,0.383197,-0.0284385,-0.0599484,0.271632,-0.0558804,0.138817,-0.244845,0.0769702,0.0283153,0.015036,-0.109329,-0.647032,0.125615
2960-BRECHT,0.136875,-0.178838,-0.126997,-0.370499,0.0282442,0.292466,-0.111291,0.13778,-0.50916,-0.229148,-0.0953719,-0.0963803,-0.519032,0.27549,-0.0524914
Portugal,0.0691007,0.254625,0.113528,-0.220469,0.0121336,-0.176188,0.265439,-0.119891,0.523732,-0.377524,0.118043,0.0885427,-0.433923,-0.344267,0.0864439
9170-SINT-PAUWELS,0.279767,-0.343193,0.31265,-0.110492,0.141127,0.198676,0.401228,0.271264,-0.117549,-0.168931,0.23669,0.0540316,0.00977581,-0.545985,-0.023251
8650-HOUTHULST,0.00551459,0.0166108,0.46323,0.0387267,-0.186494,0.11931,0.468439,0.232437,-0.320342,0.179003,-0.0562379,0.00709027,-0.250107,0.502175,0.092347
9000-GENT,0.3705,-0.0871518,0.42709,-0.177663,-0.230776,-0.476591,0.068291,0.214649,-0.067887,-0.0949584,0.142274,0.250688,0.0870854,-0.138543,-0.431903
8710-WIELSBEKE,-0.0966619,0.178342,0.375683,0.116265,-0.575996,-0.175146,0.231457,0.0156268,-0.0515357,-0.485677,-0.19304,-0.218903,-0.200525,-0.0764476,-0.134741
3620-LANAKEN,-0.226841,0.00884708,-0.0947991,-0.0590954,0.0861734,-0.405177,0.127585,0.209235,-0.206033,-0.177013,-0.27793,-0.0859936,-0.565764,-0.441468,0.175865
9980-SINT-LAUREINS,0.484633,-0.224621,0.155002,0.0439515,0.190671,-0.13552,-0.222005,0.461576,-0.185845,-0.487064,-0.263465,-0.0855445,0.0867668,0.0131429,-0.124327
2250-OLEN,-0.226596,-0.0143968,0.226276,-0.159627,-0.161266,0.116906,-0.364662,0.335662,-0.016845,-0.485331,0.087717,0.432358,-0.361225,0.118563,-0.106986
3020-HERENT,0.0764868,-0.116632,0.0786249,-0.0397885,-0.0183686,0.0172507,0.121435,0.800566,0.391,-0.115687,0.0580192,0.217972,-0.000295577,-0.0373256,0.312985
3070-KORTENBERG,0.216951,0.0227736,-0.01229,-0.0963548,-0.0933111,-0.000133788,0.111026,0.625382,0.474803,-0.0933984,0.105659,-0.0522675,-0.0901053,0.0112418,0.523965
8020-OOSTKAMP,0.359167,0.130794,0.25059,0.146209,0.138914,-0.312611,0.0628126,0.352955,-0.100573,-0.336417,-0.208714,-0.227973,-0.317072,0.353796,-0.282211
3600-GENK,-0.321323,-0.0808764,0.0973215,-0.0374009,-0.160504,-0.250379,0.485955,0.178916,-0.159616,0.185373,0.121349,0.0780003,-0.499383,-0.321887,0.298466
9031-DRONGEN,0.390237,0.157692,0.271024,-0.0562455,0.0403062,-0.34389,0.0402819,0.07662,-0.103889,-0.683457,-0.143978,0.0707364,0.0102466,-0.336289,0.0449213
3730-HOESELT,-0.0808457,-0.0136139,0.124051,-0.12436,0.136257,-0.337865,0.0826753,0.281185,-0.263555,0.167734,0.0379612,-0.116974,-0.548551,-0.568124,0.0860963
Regio Geel - Mol,-0.188508,0.016363,0.17799,-0.00508969,-0.0575344,-0.0580627,-0.234519,0.139963,-0.0892225,-0.378685,0.415875,0.371496,-0.611751,0.120942,-0.00543792
2000-ANTWERPEN,0.419319,0.160804,-0.331088,0.133501,-0.024576,0.128176,0.37902,0.14148,-0.160273,-0.266515,-0.0199634,0.401151,-0.467082,-0.0946502,0.0707318
2861-ONZE-LIEVE-VROUW-WAVER,0.0685668,-0.302861,-0.224482,0.198676,-0.475165,0.173702,-0.164055,0.495914,-0.078727,-0.276556,-0.330252,-0.034958,-0.266277,0.00587321,0.144926
2221-BOOISCHOT,-0.177681,-0.0691156,-0.0767755,0.0130196,-0.407664,-0.00715146,-0.101985,0.619626,-0.0626558,-0.404717,-0.114175,0.443862,-0.0866265,0.101457,0.0379605
3500-HASSELT,-0.227218,0.215158,0.352713,-0.199195,0.153471,-0.220816,-0.337493,0.261465,0.125519,0.117061,-0.0338054,0.0916014,-0.49397,-0.344409,0.286006
9402-MEERBEKE,0.410967,-0.149832,0.0100166,-0.395679,-0.265987,-0.396184,-0.133852,0.00576063,-0.462569,-0.0169337,0.0335458,-0.325225,-0.123908,0.102995,0.24335
8980-PASSENDALE,-0.216726,0.0530033,0.558961,-0.141381,-0.011805,0.0938665,0.550995,0.13634,-0.175977,-0.198621,-0.33006,-0.0205261,-0.246557,0.21461,0.00581232
1730-MOLLEM,0.312874,-0.224171,0.211,0.0268627,-0.579882,-0.135508,-0.0501322,0.106779,-0.093465,0.220016,0.375166,-0.134083,-0.0979481,0.135801,0.440645
8890-MOORSLEDE,0.00579084,0.074918,0.442243,-0.132908,-0.277599,-0.093234,0.712641,0.155265,-0.0768887,0.00629202,-0.197776,-0.112908,-0.227792,0.210325,-0.0972146
1840-LONDERZEEL,0.483576,-0.466537,0.117373,0.142649,-0.470638,0.0633519,-0.0395933,0.251593,0.10802,0.109086,0.163637,-0.00318598,-0.163512,-0.00493232,0.383244
3670-MEEUWEN-GRUITRODE,-0.212753,-0.163178,0.226326,0.089318,-0.0267364,-0.266572,-0.0652916,-0.000663699,-0.16648,-0.0791932,0.0998408,-0.0343904,-0.617749,-0.0561559,0.602465
9120-KALLO,0.277899,-0.344069,0.168911,-0.124261,0.0884709,0.346017,0.374958,0.0799142,-0.340429,-0.20394,-0.0173345,-0.00339932,-0.297385,-0.444917,-0.204202
9280-LEBBEKE,0.408519,-0.472422,0.497403,-0.123819,-0.301545,0.0118519,0.00107309,0.112882,-0.238763,0.159015,0.165264,-0.0113544,0.0180063,-0.0544539,0.361043
2200-NOORDERWIJK,-0.338935,-0.13421,0.0316408,-0.297628,-0.35926,0.0199574,-0.193198,0.341304,-0.299937,-0.498435,-0.0141675,0.308421,-0.169422,-0.0791971,-0.159832
2290-VORSELAAR,-0.271146,0.072697,0.092758,-0.211213,-0.173635,0.37054,-0.242713,0.287525,-0.287791,-0.576466,-0.130478,0.15515,-0.289714,-0.124998,0.0562165
2050-ANTWERPEN,0.410393,-0.167524,0.0120692,-0.437483,-0.0079929,0.332268,0.187122,0.215148,-0.0143367,-0.0715521,0.057744,0.183771,-0.449395,-0.310909,-0.281347
9050-GENT,0.36771,0.254048,0.324362,-0.171141,0.0841655,-0.291432,-0.0765764,0.0313481,-0.140887,-0.590387,-0.0242924,0.202115,0.0360572,-0.321963,0.228209
8755-RUISELEDE,0.102601,-0.0933915,0.302187,0.391165,0.00573259,-0.37237,0.326068,0.00249901,-0.124172,-0.619063,-0.114265,0.0339747,-0.229034,0.082469,-0.138844
9550-HERZELE,0.20983,-0.197564,0.242747,-0.484347,-0.28061,-0.368284,-0.00130661,-0.0526134,-0.542777,-0.110862,-0.0721162,-0.175221,0.0205103,-0.0434169,0.247327
8560-MOORSELE,0.186061,0.402627,0.324929,-0.281568,-0.418389,-0.0779927,0.565971,0.162262,0.138309,-0.0449305,-0.220094,-0.033432,-0.00426127,0.115688,0.080741
3300-TIENEN,-0.0195477,-0.0765382,0.000815886,-0.25655,0.220256,-0.246855,0.0816359,0.817082,-0.146544,0.071155,0.034442,0.221229,-0.022441,0.117032,0.230948
2980-ZOERSEL,-0.0381462,0.108006,-0.135165,-0.365108,-0.167465,0.275496,-0.223728,0.177545,-0.419763,-0.302202,-0.202127,0.0544406,-0.564958,0.138613,0.00704341
2390-OOSTMALLE,0.216399,0.155338,-0.109703,-0.388435,0.0180545,0.213356,-0.408893,0.124957,-0.337022,-0.315609,-0.0339331,0.0694854,-0.489003,0.277196,0.0483331
3360-KORBEEK-LO,0.0647496,0.0270154,-0.00817443,-0.259033,0.105165,-0.126921,0.0447514,0.793764,0.225792,-0.25282,0.0465202,-0.0115809,0.0352402,0.132777,0.364158
3960-BREE,-0.160646,-0.383288,0.101221,0.10813,-0.0018266,-0.342077,-0.0729741,-0.0907382,-0.161162,-0.202173,0.00159669,-0.182539,-0.640911,-0.125401,0.384844
1935-ZAVENTEM (CORPORATE VILLAGE),0.410055,-0.0706566,-0.0906483,0.218117,-0.181619,-0.18388,0.00641532,0.462373,0.473028,-0.090034,0.292413,0.0263404,-0.239722,0.0355931,0.337118
8210-ZEDELGEM,0.336903,0.0991515,0.413717,0.184381,0.054776,-0.158779,0.0887091,0.28827,-0.21754,-0.224295,-0.0652481,-0.35371,-0.361565,0.407051,-0.17002
9940-SLEIDINGE,0.427401,-0.000752983,0.266978,-0.23616,0.226931,-0.304226,-0.0350945,0.187137,-0.171552,-0.444355,-0.414451,0.277446,0.0676734,-0.132543,0.110462
Regio Beringen - Tessenderlo,-0.406141,-0.0740873,0.177936,-0.015095,-0.102988,-0.36212,-0.0605714,0.328181,-0.130686,-0.183226,0.305451,0.107525,-0.577879,-0.23381,0.0209269
2540-HOVE,0.279066,-0.000317543,-0.264105,-0.326116,-0.564561,0.331449,0.14895,0.290521,-0.231811,-0.0647239,-0.0777451,0.131743,-0.334481,-0.132446,0.00991999
2870-RUISBROEK,0.380928,-0.346812,0.182811,0.165749,-0.402366,0.310795,-0.198225,-0.181679,0.0675396,-0.146832,0.030742,-0.0376101,-0.399462,-0.104441,0.379436
9280-WIEZE,0.491288,-0.395932,0.183819,0.0593819,-0.296414,-0.148679,0.074418,0.0811158,-0.337491,-0.191013,0.101045,-0.0626462,0.0568804,-0.082487,0.517604
2500-LIER,0.0169422,0.0340768,-0.0959303,-0.139726,-0.601326,0.378996,-0.020293,0.460388,0.0977956,-0.254009,-0.182261,0.120518,-0.340311,0.00375649,-0.120712
3050-OUD-HEVERLEE,0.107751,-0.0876956,-0.0349002,-0.258416,0.191492,-0.0461571,0.115605,0.619773,0.29251,-0.129278,0.14044,0.0720414,-0.11002,0.119933,0.568105
2830-WILLEBROEK,0.4399,-0.501519,0.0147829,0.270153,-0.488123,0.17044,-0.0723156,0.138609,0.0302548,-0.00532273,0.0109132,0.109723,-0.395007,-0.013179,0.14389
1853-STROMBEEK-BEVER,0.446539,-0.106739,0.124817,-0.119261,-0.34429,-0.0445858,0.00286038,0.204171,0.351314,0.269028,0.121724,-0.262574,-0.202135,-0.0839385,0.519351
8560-GULLEGEM,0.00985352,0.410817,0.351899,-0.0293642,-0.394814,-0.0727777,0.552417,0.0585658,0.115027,-0.0474684,-0.275826,-0.153093,-0.306512,-0.1366,0.0951659
1820-MELSBROEK,0.179273,-0.0545187,-0.28963,-0.285772,-0.231988,0.00570011,0.0796389,0.439811,0.30864,-0.125293,0.055722,-0.248045,-0.228496,0.0728894,0.559106
9250-WAASMUNSTER,0.328943,-0.4711,0.444788,-0.0892823,-0.132589,0.234518,0.297786,0.0735369,-0.227165,-0.175091,0.19575,0.105919,0.0584563,-0.347031,0.204317
2850-BOOM,0.373276,-0.341857,0.0345546,0.147553,-0.383676,0.407367,0.0224847,0.0227869,0.150341,-0.0569706,-0.0676249,-0.0167534,-0.530338,-0.171156,0.255732
8908-VLAMERTINGE,-0.00883846,0.0835607,0.499087,-0.424568,-0.0113902,0.0685698,0.511672,0.29794,-0.136983,0.167367,-0.334394,0.107599,-0.070519,0.179035,0.0314119
8580-AVELGEM,-0.0404445,0.149685,0.571873,-0.189191,-0.467699,-0.183247,0.13194,-0.151095,-0.106307,-0.100047,-0.195414,-0.313171,-0.261502,-0.274546,-0.138687
1070-ANDERLECHT,0.517861,0.189397,-0.100876,-0.360016,-0.275577,-0.360547,0.131996,-0.0283827,0.202283,0.110578,0.272235,-0.11273,-0.27366,0.0519256,0.338294
3320-HOEGAARDEN,-0.120042,-0.054283,0.0950412,-0.585309,0.0672093,-0.0250879,0.0415513,0.690308,0.0582443,0.0419781,0.106651,-0.20574,0.0182098,-0.152581,0.255255
3053-HAASRODE,0.0734397,-0.245042,0.113606,-0.171536,0.0968538,-0.160199,0.0493967,0.796193,0.344107,-0.0405899,0.142864,0.0949946,-0.0505455,-0.0542401,0.256581
3583-PAAL,-0.391944,-0.0159026,0.222004,0.0144422,-0.281657,-0.223268,-0.106217,0.390843,-0.258179,-0.103903,0.4188,0.103928,-0.432432,-0.229119,0.016572
1670-PEPINGEN,0.226971,0.221727,-0.0368167,-0.545686,-0.388494,-0.23534,-0.205688,-0.0287901,-0.112533,0.0922551,0.053894,-0.149301,-0.170427,0.0705415,0.519954
1540-HERNE,0.266958,0.0282993,0.0656179,-0.457514,-0.371929,-0.38948,-0.449442,0.0461624,-0.259896,0.14762,0.0420825,-0.260443,-0.202542,0.121242,0.074093
8980-GELUVELD,-0.276125,0.125753,0.458504,-0.176564,-0.0868841,0.13631,0.47355,0.342512,-0.110105,-0.0267125,-0.44265,-0.0659819,-0.276011,0.0743767,-0.0632704
2490-BALEN,-0.118117,0.144813,0.132269,0.148757,-0.0272135,-0.160212,0.0486895,0.0222497,0.00440852,-0.41498,0.45864,0.435372,-0.561467,0.0809346,0.0475012
3271-AVERBODE,-0.346402,-0.155871,0.24129,-0.0859999,-0.201903,0.00387866,-0.0402445,0.6543,-0.0271576,-0.101747,0.370701,0.283691,-0.163283,0.19452,0.161544
2223-SCHRIEK,-0.10523,-0.148203,-0.0666074,0.098813,-0.601715,-0.00220147,-0.112898,0.52637,-0.0605168,-0.283871,-0.248033,0.333723,-0.000728926,0.0799813,0.193264
3950-BOCHOLT,-0.134555,-0.0844878,0.169188,0.270689,0.0961262,-0.225723,0.118545,0.0837255,-0.101514,-0.0978063,0.0587535,0.196287,-0.643195,0.144925,0.543186
9051-SINT-DENIJS-WESTREM,0.378436,0.192517,0.26267,-0.101363,-0.0622374,-0.395736,-0.0325087,0.0016655,-0.0459718,-0.685582,-0.00993375,0.0246767,0.0382541,-0.300318,0.120062
1081-KOEKELBERG,0.525104,0.213941,0.0363358,-0.235537,-0.133722,-0.263428,0.214411,0.0897745,0.202377,0.273433,0.463034,-0.110424,-0.282588,-0.10353,0.217942
3294-MOLENSTEDE,-0.404962,-0.0172909,0.271045,-0.103034,-0.321269,-0.12971,-0.123365,0.651314,-0.00717231,-0.16346,0.313821,0.137133,-0.169542,0.0686547,0.120997
2990-WUUSTWEZEL,0.102291,-0.190952,-0.0851848,-0.517822,0.190531,0.170008,0.0682607,0.0723619,-0.327465,-0.216279,-0.364744,0.161494,-0.423564,0.302884,0.13529
8750-ZWEVEZELE,0.112612,-0.106162,0.402663,0.285927,-0.0821793,-0.203333,0.316237,0.243378,-0.0699695,-0.463161,-0.163938,-0.155085,-0.210256,0.448328,-0.0963033
8720-DENTERGEM,0.065522,0.0691681,0.35944,0.295978,-0.392767,-0.302436,0.293127,-0.032334,-0.00913837,-0.572857,-0.186354,-0.195866,-0.184897,-0.0740837,0.0201158
9620-ZOTTEGEM,0.192158,0.0474968,0.232111,-0.43456,-0.152182,-0.182009,-0.213724,0.0131683,-0.526804,-0.174737,0.062411,-0.445238,-0.0327426,-0.316569,0.0669942
1000-BRUSSEL,0.481305,0.266206,-0.104376,-0.0735551,0.007461,-0.020766,0.0712235,0.266082,0.112,-0.149459,0.508536,-0.467451,-0.225001,-0.190682,0.0763574
3582-KOERSEL,-0.130458,-0.0357287,0.348856,0.207718,-0.275472,-0.40435,-0.192447,0.260567,-0.0771485,0.162544,0.392809,0.128834,-0.464894,-0.184025,-0.138857
3980-TESSENDERLO,-0.399704,-0.00136474,0.162967,0.093184,-0.143904,-0.225855,-0.0434836,0.506397,-0.0591912,-0.173601,0.338613,0.205736,-0.53203,-0.0123073,-0.033347
9200-GREMBERGEN,0.384582,-0.337659,0.401806,-0.164473,-0.214334,0.165384,0.23034,0.0522786,-0.285199,0.13401,-0.00629595,0.204497,0.0392791,-0.149228,0.505505
9860-GIJZENZELE,0.387783,0.0260903,0.409791,-0.487285,0.0325251,-0.30677,0.249491,-0.0300345,-0.34267,-0.197142,-0.0758886,-0.0136466,0.0887677,-0.322261,0.106256
9810-NAZARETH,0.162993,0.00533211,0.298709,-0.0425976,-0.326851,-0.295501,0.0067395,-0.0267825,-0.140403,-0.614711,-0.200556,-0.164077,0.016492,-0.466416,0.0700432
9420-ERPE-MERE,0.389385,-0.294928,0.133038,-0.232188,-0.227327,-0.33198,0.0349523,-0.0478638,-0.497575,-0.255278,0.271661,-0.209375,0.00863547,0.0163067,0.30604
1200-SINT-LAMBRECHTS-WOLUWE,0.443528,0.209078,-0.00991436,-0.244451,-0.0840676,-0.19298,0.162412,0.23013,0.450124,0.0258281,0.417961,-0.123448,-0.25284,0.12675,0.320727
3440-ZOUTLEEUW,-0.229325,-0.090629,0.189209,-0.486734,0.201501,-0.183755,0.113871,0.666105,-0.297057,0.0200279,0.165178,0.00877421,-0.0281826,-0.0979505,0.0951969
1651-LOT,0.198288,0.381319,-0.00981966,-0.288831,-0.519746,-0.237305,-0.282719,0.105245,-0.105361,0.0948561,0.323272,-0.174176,-0.210765,0.147871,0.305079
3470-KORTENAKEN,-0.216462,-0.0380112,0.138937,-0.244181,-0.10638,-0.290162,-0.21225,0.758085,-0.251824,0.0916681,0.137372,-0.219156,-0.103979,0.0577715,0.0681916
9060-ZELZATE,0.340916,-0.208212,0.293021,-0.103263,0.243313,-0.199983,0.149028,0.231353,-0.25965,-0.399668,-0.36846,0.356414,0.0586281,-0.252459,0.108869
3270-SCHERPENHEUVEL-ZICHEM,-0.314583,-0.0771461,0.269934,-0.0528147,-0.230515,-0.0196291,-0.304781,0.683918,-0.0665115,-0.201882,0.225995,-0.110773,-0.0622334,0.175628,0.249061
3640-KINROOI,-0.257349,-0.290027,0.140476,0.0505534,0.0154599,-0.183762,0.0217984,0.0512655,-0.265158,-0.118818,-0.182674,-0.0914394,-0.574438,0.000523591,0.57803
2070-ZWIJNDRECHT,0.346885,-0.344208,0.139965,-0.167038,0.0210857,0.343869,0.251744,0.0924421,-0.185119,-0.184513,0.106085,0.104815,-0.404669,-0.396504,-0.334009
2840-RUMST,0.279016,-0.323543,-0.0409121,0.213089,-0.507136,0.310784,-0.0506434,0.223582,0.138289,-0.0933074,-0.213992,0.160409,-0.479347,-0.0740698,0.171607
3990-PEER,-0.23224,-0.153947,0.216032,0.188697,0.0290978,-0.294075,0.0105035,0.0140719,-0.242417,-0.147021,0.158713,-0.0365969,-0.712635,0.120727,0.350883
3890-GINGELOM,-0.222081,-0.164081,0.226833,-0.417973,0.312354,-0.310414,0.114802,0.550282,-0.168214,0.0855728,0.170712,-0.154803,-0.254055,-0.177296,0.0546678
3620-VELDWEZELT,0.0204762,-0.207578,0.235102,0.198507,0.107893,-0.218699,0.215984,0.379537,0.0245643,0.271891,-0.266436,-0.0745989,-0.482425,-0.434773,0.196987
1950-KRAAINEM,0.310519,-0.00281154,0.0394733,-0.174428,0.032654,-0.061304,0.12836,0.353099,0.450984,-0.104515,0.162752,0.0258451,-0.133841,0.173519,0.660394
Vlaanderen,0.419098,-0.0315829,0.0634253,0.0248731,0.0497249,-0.458591,0.166049,0.146653,0.0909195,-0.121116,0.256483,-0.046562,-0.528503,-0.248864,-0.353164
9320-NIEUWERKERKEN,0.369867,-0.285859,0.172927,-0.0768969,-0.0665079,-0.349824,0.0733607,-0.0872883,-0.429798,-0.226133,0.265349,-0.249416,-0.0908581,0.0676963,0.473863
2920-KALMTHOUT,0.290133,-0.16891,-0.0472304,-0.35909,0.385915,0.32139,-0.140969,0.29131,-0.300907,-0.043215,-0.271288,0.00722554,-0.461309,0.0976116,0.103752
3061-LEEFDAAL,0.163476,0.275989,-0.274742,-0.360727,0.0947016,-0.0734391,0.349201,0.488248,-0.0478808,0.0441339,-0.028274,0.0124737,-0.134783,0.408195,0.356124
Regio Oostende,0.316519,0.306487,0.541469,0.121733,-0.0420594,0.266842,-0.100809,0.391214,-0.237656,-0.0614658,0.0617814,-0.330985,-0.18083,0.232371,0.0369741
8953-WIJTSCHATE,0.126438,-0.00448703,0.397538,-0.218767,-0.0230587,0.0410389,0.649726,0.410404,-0.0500533,0.154137,-0.395628,0.0174612,-0.036978,0.0283984,0.00654791
3550-HEUSDEN,-0.168045,0.0828962,0.245319,0.0506901,-0.390181,-0.357634,-0.192953,0.307894,0.0134236,0.188723,0.378431,-0.0395495,-0.419832,-0.363116,0.0358258
2240-ZANDHOVEN,-0.00672078,0.0859365,-0.2287,-0.334197,-0.307558,0.1361,-0.352015,0.176457,-0.342894,-0.425378,-0.212095,0.0864551,-0.431962,-0.101183,-0.112251
1770-LIEDEKERKE,0.456826,-0.230971,0.0546683,-0.321995,-0.195836,-0.380551,-0.092802,0.0117819,-0.317803,-0.00312232,0.126714,-0.153687,-0.0981704,0.28024,0.458819
9190-STEKENE,0.255491,-0.436891,0.361546,0.10238,0.160996,0.139324,0.458855,0.151198,-0.159961,-0.36734,0.134164,0.112556,0.0203965,-0.347717,0.106747
9800-DEINZE,0.235668,-0.0717068,0.214639,0.0278382,-0.193234,-0.40399,0.328339,-0.0220776,-0.123607,-0.599154,-0.245809,-0.203207,-0.0428133,-0.323441,-0.0347245
8340-DAMME,0.364692,-0.0205422,0.390821,0.0225936,0.275136,-0.393906,-0.0630865,0.412732,0.0229902,-0.229698,-0.321826,-0.179767,-0.224557,0.133543,-0.225166
1030-SCHAARBEEK,0.567408,0.189157,-0.0267615,-0.229638,-0.0637891,-0.381045,0.116467,0.135738,0.383539,0.150798,0.293136,0.108758,-0.329282,0.00903793,0.177361
9255-BUGGENHOUT,0.512897,-0.439437,0.288026,-0.0438397,-0.293026,0.0431753,0.218881,0.117627,-0.20241,0.0878175,0.024223,0.161032,0.0320397,0.0567308,0.479618
2480-DESSEL,-0.167168,0.105979,0.172519,0.0390492,-0.104797,0.0304027,-0.0116135,-0.0309755,-0.146615,-0.493103,0.516588,0.262137,-0.53164,0.182348,0.0204312
1050-ELSENE,0.504301,0.262576,-0.10174,-0.202837,-0.0903786,-0.394411,0.11182,0.038016,0.381221,-0.0184815,0.319793,0.016623,-0.349961,0.0603702,0.270615
9840-DE PINTE,0.200921,0.120811,0.141169,-0.104238,-0.272984,-0.401968,0.106892,-0.14394,-0.177412,-0.720789,0.09289,0.048853,-0.0191186,-0.289145,-0.000613834
9070-HEUSDEN,0.0982309,0.138943,0.486604,-0.165617,0.107877,-0.405124,0.225317,-0.000638795,-0.0778224,-0.33758,0.270526,0.351931,0.0303285,-0.267725,0.30108
8520-KUURNE,0.0737304,0.36483,0.438891,-0.00717944,-0.56676,-0.177028,0.379897,-0.0061402,0.186069,-0.0634031,-0.171543,-0.154173,-0.264234,-0.0881153,-0.0494811
Regio Vilvoorde - Zaventem,0.245761,-0.186313,0.0101861,-0.0485437,-0.373819,-0.134483,0.00993772,0.436496,0.526322,-0.0795295,0.208761,-0.300726,-0.196678,-0.0168213,0.312493
8940-WERVIK,-0.104129,-0.0209689,0.545016,-0.182409,-0.285813,0.0971653,0.540992,0.190378,0.198911,0.143523,-0.300263,-0.184034,-0.222,-0.00804724,0.0693943
8570-VICHTE,-0.000474331,0.291754,0.354052,0.0422705,-0.490567,-0.157555,0.109436,-0.202081,-0.168569,-0.280904,-0.204078,-0.399273,-0.340018,-0.21309,0.00625027
8380-ZEEBRUGGE,0.277487,0.210946,0.39304,0.2483,0.190441,0.0389337,-0.203935,0.386346,0.0994881,-0.285015,-0.363992,-0.14661,-0.370362,-0.0492727,-0.221408
3510-KERMT,-0.3462,0.080924,0.14792,-0.114273,-0.0585263,-0.425492,0.0748499,0.531383,-0.300462,-0.0093515,0.234981,-0.0645757,-0.390071,-0.24838,0.0511876
3570-ALKEN,-0.227876,-0.0795557,0.0876647,-0.19488,0.209823,-0.465586,0.135818,0.524466,-0.203328,0.0381221,0.163786,-0.101713,-0.422319,-0.288877,-0.00168074
-AYE,0.190731,-0.0381844,0.075546,-0.354475,0.0985397,-0.218861,0.258919,0.404122,0.385726,-0.23843,0.100499,-0.241498,-0.440876,-0.264413,-0.0670784
3000-LEUVEN,-0.0295402,-0.264335,-0.186469,-0.434267,-0.0281258,-0.376527,0.116358,0.447532,0.421052,-0.288527,-0.0323495,-0.174048,-0.14586,0.100982,0.161753
8880-SINT-ELOOIS-WINKEL,-0.128781,0.276893,0.415815,-0.0287877,-0.305749,0.0498701,0.529631,0.0278378,0.061825,-0.382483,-0.173717,-0.233494,-0.272273,0.174493,0.127939
3800-AALST,-0.0336192,-0.162776,0.27869,-0.424097,0.320461,-0.44163,0.0497662,0.456657,-0.327523,0.152751,0.151594,-0.0043247,-0.114167,-0.124825,0.154545
8380-DUDZELE,0.313172,-0.0415516,0.377895,0.234567,0.180425,-0.0410093,0.0593808,0.405991,0.0596649,-0.253285,-0.202437,-0.343086,-0.354757,0.041058,-0.381891
3990-WIJCHMAAL,-0.0805844,-0.0546859,0.245228,0.302253,-0.0910175,-0.3074,-0.00968237,-0.0422414,-0.0983088,-0.142081,0.259553,0.245785,-0.564579,0.0208935,0.507493
3800-SINT-TRUIDEN,-0.192613,-0.0186692,0.0931762,-0.16433,0.274407,-0.0379367,0.166667,0.573231,-0.221207,-0.0016814,0.271349,-0.414806,-0.299401,-0.300559,0.138384
1740-TERNAT,0.516824,-0.168228,0.113696,-0.196419,-0.290784,-0.342576,-0.114139,0.121096,-0.291955,0.206124,0.24868,-0.13937,-0.117982,0.233727,0.382022
Regio Mechelen,0.361704,-0.2493,-0.227373,0.0303009,-0.421546,0.21745,-0.142906,0.463054,0.209385,-0.190732,-0.0315504,0.00943521,-0.388642,-0.00920193,0.249288
3150-HAACHT,0.0908608,-0.152477,-0.0666252,-0.167436,-0.33328,-0.0858772,-0.174711,0.73868,0.278675,-0.107546,-0.109518,0.165846,-0.0383747,0.111732,0.314194
Regio Gent,0.465095,0.120764,0.326841,-0.0874049,0.066169,-0.321318,0.0139886,0.00271087,-0.133705,-0.566581,-0.131218,0.129235,0.0171747,-0.3805,0.170072
2610-WILRIJK,0.296435,-0.183962,-0.0456599,-0.301551,-0.243386,0.307612,0.149852,0.0936447,0.183906,-0.0621139,-0.153209,0.120854,-0.627735,-0.358156,-0.0457602
9830-SINT-MARTENS-LATEM,0.331033,0.141572,0.284728,0.015194,-0.171922,-0.231696,-0.0320908,0.0295508,-0.0434617,-0.744488,0.0936445,-0.0761148,0.0634114,-0.353931,0.062677
Provincie Limburg,-0.173066,-0.0981239,-0.0318746,-0.00298837,0.10368,-0.482441,0.0643985,0.277728,-0.0279377,-0.00333208,0.170457,-0.0416236,-0.713333,-0.247848,0.181007
9831-DEURLE,0.349531,0.174414,0.137271,0.0956743,-0.270469,-0.369618,-0.035872,-0.0567017,-0.135405,-0.662714,-0.0933732,0.0189156,-0.0586374,-0.3632,-0.0564227
2243-PULLE,-0.121107,0.28073,-0.208228,-0.246213,-0.350559,0.069876,-0.259037,0.216458,-0.182709,-0.500977,-0.196697,0.113504,-0.432541,0.0257969,-0.19268
9032-WONDELGEM,0.367487,0.262207,0.24295,-0.235941,0.106963,-0.189346,-0.128274,0.0988144,-0.170713,-0.581984,-0.189018,0.326056,0.058154,-0.270164,0.147434
8480-ICHTEGEM,0.303836,0.206951,0.523642,0.175,-0.0690691,0.0349943,0.19113,0.263951,-0.205815,-0.102839,-0.0927733,-0.14079,-0.240036,0.545178,0.107851
8552-MOEN,-0.0565113,0.39383,0.346515,-0.255277,-0.463842,-0.097745,-0.0876961,-0.0900546,-0.0814625,-0.159809,-0.346277,-0.374866,-0.29341,-0.18724,-0.046968
9960-ASSENEDE,0.110588,-0.250593,0.589287,-0.139106,0.152608,-0.0857209,-0.275406,0.151721,-0.069613,-0.370295,-0.411259,0.253883,0.0220752,-0.213804,0.0842901
8610-ZARREN,-0.0451442,0.380688,0.429935,-0.0281461,-0.0279027,-0.0573412,0.331736,0.264316,-0.430432,-0.158573,-0.0387377,0.0609994,-0.153861,0.458405,0.18433
3920-LOMMEL,-0.169563,0.0384276,0.0684713,-0.00203959,-0.0500672,-0.377165,-0.0715644,-0.00528025,-0.378156,-0.10699,0.268693,0.25423,-0.661143,0.209271,0.207334
3200-AARSCHOT,-0.262059,-0.00842354,0.0563219,-0.151072,-0.343929,-0.137886,-0.095713,0.754261,0.175571,-0.28402,0.136036,0.211216,-0.0336412,-0.0186406,0.11747
2811-LEEST,0.298972,-0.277911,-0.190934,-0.0150855,-0.600253,0.135333,-0.121118,0.237798,0.225473,-0.0925378,-0.181539,-0.14848,-0.305914,-0.0664551,0.366685
Regio Aalter - Deinze,0.366974,-0.0578005,0.252966,0.143907,-0.125456,-0.354619,0.107127,-0.01973,-0.0457284,-0.689722,-0.245948,-0.0890022,-0.115423,-0.239147,-0.0848323
1020-LAKEN (BRUSSEL-STAD),0.547579,0.166,-0.0300704,-0.214379,-0.1559,-0.251584,0.240897,0.163317,0.354468,0.188685,0.265655,-0.0922003,-0.297581,0.0404575,0.3506
8840-STADEN,0.0127173,0.146702,0.508816,-0.0851106,-0.146277,-0.105546,0.464784,0.153161,-0.385409,-0.100628,-0.147212,-0.0923929,-0.180372,0.460936,0.0793081
Provincie Vlaams-Brabant,0.290971,0.0347109,-0.0767667,-0.321203,0.0524227,-0.42324,-0.00981638,0.666894,0.205801,-0.0150757,0.260728,-0.125064,-0.124759,0.0333293,0.188322
2288-BOUWEL,-0.200627,0.0289617,0.0149435,-0.0804093,-0.457617,0.169093,-0.305791,0.343264,-0.0476056,-0.525035,-0.0892139,0.132914,-0.363449,-0.0593474,-0.252402
8200-SINT-MICHIELS,0.617798,0.171658,0.263127,0.0465136,0.151312,-0.223606,0.114058,0.287013,-0.00193867,0.0332505,-0.287618,-0.294582,-0.33441,0.202311,-0.160648
7850-EDINGEN,0.243996,0.131436,-0.166413,-0.596508,-0.270424,-0.331344,-0.051813,-0.0201301,-0.140552,0.115714,-0.0731136,-0.400008,-0.227459,-0.0302833,0.32018
2230-HERSELT,-0.291893,-0.253597,0.0723745,-0.203678,-0.356571,-0.0521875,-0.0519289,0.587431,-0.0373407,-0.355411,0.166647,0.373324,-0.0895918,0.130663,-0.0785688
9880-AALTER,0.373486,-0.0635105,0.295196,0.181812,-0.0731374,-0.309013,0.0090135,0.185265,-0.0487107,-0.719494,-0.188785,-0.199985,-0.0112185,0.0508721,-0.0514173
8880-LEDEGEM,-0.140579,0.160233,0.48,-0.0363204,-0.435111,0.107775,0.560073,0.185909,-0.0458381,-0.16293,-0.284906,-0.127943,-0.123923,0.100605,0.148313
2960-SINT-LENAARTS,0.0198202,-0.0577749,-0.0199972,-0.237586,-0.0668297,0.406811,0.0289739,0.0770627,-0.503761,-0.30546,-0.206616,-0.0875412,-0.494365,0.342208,0.0611927
2930-BRASSCHAAT,0.217858,-0.203987,-0.130444,-0.537004,-0.0099334,0.242761,0.145441,0.249214,-0.297134,-0.0334193,-0.132954,0.158943,-0.510696,0.164145,-0.207717
2530-BOECHOUT,0.155336,-0.0126164,-0.164188,-0.317243,-0.513659,0.176083,-0.0990861,0.159134,-0.0457396,-0.141174,-0.310562,0.362397,-0.42428,-0.289579,-0.0666873
3350-LINTER,-0.139936,0.0342692,-0.00255583,-0.501843,0.0644913,-0.158988,0.0726082,0.751257,-0.279618,0.138252,0.0617133,-0.0975974,0.0157522,-0.131359,-0.0126073
9041-OOSTAKKER,0.445093,0.246544,0.318707,-0.304496,0.118169,-0.272353,0.0996378,0.0843452,-0.163201,-0.422385,-0.118451,0.290803,0.0819869,-0.310819,0.186183
2640-MORTSEL,0.270314,0.0220143,-0.170046,-0.395194,-0.388962,0.279464,0.0369518,0.148855,-0.021747,-0.0845155,-0.194446,0.134345,-0.543044,-0.342124,-0.114093
3001-HEVERLEE,0.0741882,0.172657,-0.183149,-0.102523,0.0333069,-0.0174716,0.332154,0.777076,0.104314,-0.138611,0.0370248,0.167293,0.00377765,-0.0313558,0.380254
2580-BEERZEL,-0.0399572,-0.0466616,-0.073991,-0.00042014,-0.550057,-0.0100544,-0.214789,0.555297,-0.0224583,-0.374129,-0.283522,0.329105,0.00425489,0.0207353,0.063084
2300-TURNHOUT,-0.10796,-0.167807,-0.101356,-0.311914,-0.00106375,-0.00419201,-0.09548,-0.100609,0.0772469,-0.666904,0.112981,-0.0800238,-0.564262,0.21133,-0.0203869
3390-SINT-JORIS-WINGE,-0.182601,0.0531022,0.102137,-0.345054,-0.0999404,-0.165225,-0.0957933,0.834968,0.0538919,-0.209411,0.168113,0.0100775,0.0626568,0.103318,0.0314063
9130-KIELDRECHT,0.396125,-0.33251,0.401899,-0.0076189,0.19557,0.254958,0.350212,0.140748,-0.231648,-0.057282,0.205657,-0.00282928,-0.20517,-0.338245,-0.263595
1090-JETTE,0.650509,0.13355,-0.019129,-0.331508,-0.189434,-0.202974,0.0874147,0.079762,0.270925,0.142409,0.280908,-0.0827378,-0.248803,0.0918128,0.328458
2650-EDEGEM,0.41914,0.0193816,-0.1544,-0.272876,-0.47357,0.315369,0.126538,0.21696,-0.0105845,-0.026009,-0.120697,0.232473,-0.470203,-0.203715,-0.0827353
1130-HAREN (BRUSSEL-STAD),0.454953,0.0484658,-0.0819142,-0.0935131,-0.234708,-0.30115,0.0076479,0.186392,0.483903,0.0192167,0.308589,-0.0983269,-0.323157,0.111398,0.37198
8640-VLETEREN,-0.0558279,0.126929,0.638262,-0.257458,0.050298,0.0810603,0.387007,0.035638,-0.447126,0.118189,-0.285089,0.0793486,-0.212673,0.0164966,-9.13186e-05
1500-HALLE,0.376294,0.409083,-0.233197,-0.338962,-0.335076,-0.37322,-0.124046,0.10021,-0.231986,0.00872561,0.0322895,-0.0759201,-0.175926,0.10816,0.376073
2390-WESTMALLE,0.10085,0.0102221,-0.0198437,-0.398868,-0.246297,0.213153,-0.28413,-0.0193806,-0.466072,-0.28941,-0.105931,-0.0610436,-0.479736,0.268553,-0.157597
9290-BERLARE,0.456251,-0.191908,0.300342,-0.164365,-0.163372,-0.0300539,0.0819221,0.173397,-0.495685,-0.254969,0.145426,0.252101,0.209615,-0.0631393,0.360655
3800-BRUSTEM,-0.168325,-0.215522,0.257584,-0.45071,0.316702,-0.429262,0.150456,0.394179,-0.303562,0.135279,-0.0354752,0.0647452,-0.243826,0.0235131,0.131315
8500-KORTRIJK,0.0450054,0.390868,0.345907,-0.0689805,-0.167145,0.117108,0.501006,0.157395,-0.0189869,-0.263695,-0.103453,-0.507538,-0.175777,-0.173652,0.0641066
2820-BONHEIDEN,0.22506,-0.159357,-0.209173,0.063464,-0.419722,0.221741,-0.141795,0.609838,0.188715,-0.229507,-0.154011,0.0101561,-0.212588,0.113092,0.297886
2811-HOMBEEK,0.373619,-0.360891,-0.0440131,0.150056,-0.412372,0.194,-0.322254,0.425351,0.115133,0.0100447,-0.143754,-0.0745555,-0.282533,0.122328,0.280866
2340-VLIMMEREN,-0.0901546,0.255044,-0.0313185,-0.475148,0.089833,0.261511,-0.0546003,0.188177,-0.350117,-0.572887,0.0284136,-0.133908,-0.291537,0.147886,-0.0940483
1830-MACHELEN,0.315241,-0.195215,0.00454782,0.0529179,-0.272565,-0.0368018,-0.166287,0.441806,0.47575,-0.00230845,0.0149581,-0.306387,-0.21784,0.0376299,0.438055
2940-HOEVENEN,0.174534,-0.419022,0.210431,-0.15218,0.239515,0.103645,0.0511696,0.176998,-0.324119,0.10425,-0.332259,0.426978,-0.424813,0.0991977,-0.159776
3272-TESTELT,-0.32656,-0.00385207,0.112458,-0.189667,-0.36381,-0.19446,-0.0621646,0.610973,-0.0200401,-0.234807,0.359265,0.220956,-0.0827995,0.235747,0.0392084
8830-GITS,0.192764,0.124988,0.38481,0.0260713,-0.218077,-0.247547,0.569277,0.18482,-0.0967162,-0.201032,-0.106182,0.0166896,-0.130042,0.500298,-0.0534743
2970-'S GRAVENWEZEL,0.207259,0.237435,-0.104868,-0.691143,0.0371762,0.176348,0.00279415,0.169285,-0.199676,-0.0154447,-0.0467312,0.216707,-0.446729,0.189181,-0.161973
9450-HELDERGEM,0.276499,-0.225369,0.187166,-0.36568,-0.353748,-0.322627,-0.128216,-0.0296263,-0.544365,-0.132747,-0.0721885,-0.241986,-0.00981565,0.138159,0.246076
1761-BORCHTLOMBEEK,0.486099,-0.0640001,0.0292809,-0.610643,-0.123428,-0.261056,0.0898115,0.216323,-0.210289,0.114893,0.20455,-0.0513907,0.0717194,0.169879,0.334241
1703-SCHEPDAAL,0.371915,0.0673367,0.121353,-0.317662,-0.387953,-0.216103,-0.149833,0.213776,-0.321279,0.182771,0.329581,-0.199197,-0.112478,0.365878,0.211435
9870-ZULTE,0.0230366,0.102131,0.427804,0.231526,-0.518617,-0.13956,0.0099544,-0.0209125,-0.111642,-0.549572,-0.156859,-0.237456,-0.0797459,-0.248183,0.00182908
8420-DE HAAN,0.319134,0.313442,0.551117,0.147205,0.0264997,0.0763853,-0.265801,0.498319,-0.00971926,0.00435803,-0.0119094,-0.190257,-0.228208,0.146617,-0.19741
2390-MALLE,-0.0714968,0.100574,-0.0909509,-0.497113,-0.132432,0.321544,-0.0265473,0.11039,-0.332402,-0.380788,-0.0554581,0.140784,-0.460123,0.306917,0.10613
2340-BEERSE,-0.048048,0.0391793,0.10015,-0.28802,-0.00831,0.417484,-0.261916,0.0902584,-0.34263,-0.375072,0.304848,-0.028145,-0.509916,0.158488,0.123003
1804-VILVOORDE CARGOVIL,0.46669,-0.236883,0.0449848,0.108723,-0.245795,-0.0795943,-0.129064,0.510316,0.30042,0.124292,0.00956335,-0.232491,-0.0991217,-0.0284742,0.444894
1785-MERCHTEM,0.319113,-0.386293,0.161686,-0.0313627,-0.499933,-0.0563389,0.25467,0.160903,-0.0217884,0.203813,0.306181,-0.0476597,-0.0665402,0.149812,0.461585
3680-MAASEIK,-0.172671,-0.112257,0.0633999,0.19659,0.144309,-0.0584993,0.197481,0.0840008,-0.0316196,-0.130036,-0.0598298,-0.310086,-0.658081,-0.0952964,0.533685
Regio Aarschot - Diest - Haacht,-0.215723,-0.154007,-0.0247881,-0.122333,-0.307527,-0.108735,-0.146683,0.80913,0.0662069,-0.173019,0.215818,0.0762738,-0.0815,0.0222605,0.194192
2220-HEIST-OP-DEN-BERG,-0.140961,-0.17537,-0.0443278,-0.187166,-0.445691,0.124703,-0.242408,0.605034,0.138285,-0.388836,-0.0917831,0.250807,-0.129404,-0.119762,-0.0250387
9690-KLUISBERGEN,-0.0900097,0.0286925,0.528472,-0.318691,-0.309435,-0.20524,0.0272468,-0.216909,-0.0683634,-0.219356,-0.0486467,-0.383287,-0.24434,-0.374195,-0.150909
1820-STEENOKKERZEEL,0.296591,-0.299312,-0.174894,-0.0508034,-0.133416,-0.118027,-0.0125638,0.564532,0.32131,-0.108278,-0.0638801,-0.177855,-0.185074,0.197274,0.463515
3840-BORGLOON,-0.0805091,0.0486562,0.111932,-0.38417,0.406426,-0.364001,0.225752,0.416061,-0.186351,0.139898,0.160425,0.0693908,-0.379471,-0.28007,0.0447159
9042-SINT-KRUIS-WINKEL,0.288304,-0.0152551,0.487636,-0.13146,0.216198,-0.109759,0.0536873,0.105547,-0.227402,-0.410424,-0.313881,0.364339,0.0383915,-0.345288,0.129013
3012-WILSELE,-0.00166517,-0.0965063,0.101172,-0.158158,-0.128161,-0.0352117,0.146229,0.800499,0.334036,-0.0769425,0.0640982,0.195461,0.0328941,0.052223,0.334609
1780-WEMMEL,0.412043,-0.138249,-0.00582601,0.041889,-0.43162,-0.123585,0.166591,0.201988,0.0724456,0.205576,0.2853,-0.085608,-0.191381,0.256422,0.548256
8510-MARKE,-0.0330459,0.409553,0.372937,-0.130672,-0.382741,-0.131949,0.383636,0.0477099,0.243109,-0.144191,-0.372988,-0.14957,-0.314878,-0.137431,0.04736
3460-ASSENT,-0.437845,0.0219453,0.320783,-0.246032,-0.199202,-0.210112,-0.0475688,0.658047,-0.0252204,-0.161738,0.272325,0.0115543,-0.0425044,0.0571284,0.138202
3970-LEOPOLDSBURG,-0.29388,0.0663252,0.350111,0.10777,-0.200101,-0.229098,0.0375883,0.0649144,-0.160924,-0.0845498,0.429761,0.353789,-0.559072,-0.0158142,0.145507
3830-WELLEN,-0.196992,0.0495872,0.130473,-0.321498,0.305886,-0.380986,0.174282,0.460572,-0.353055,0.0473123,0.0973542,-0.0983515,-0.406564,-0.21246,0.0257403
8301-HEIST-AAN-ZEE,0.161962,-0.0530457,0.60803,0.200726,0.174156,0.0861188,-0.161933,0.383698,0.103605,-0.0997915,-0.408651,-0.119476,-0.323857,-0.0882494,-0.187445
9750-ZINGEM,0.082012,0.0372797,0.256961,-0.095191,-0.410331,-0.248609,-0.0995812,-0.052417,-0.297662,-0.495707,-0.0824,-0.34918,-0.0319343,-0.458133,-0.00122359
8420-WENDUINE,0.279582,0.218674,0.529927,0.208911,0.287611,0.253913,-0.137229,0.486071,-0.0694572,-0.100412,-0.140651,-0.211229,-0.250346,-0.0648081,-0.032859
9810-EKE,0.145571,0.0702901,0.260029,-0.14185,-0.270735,-0.306128,0.0487081,0.0276198,-0.290573,-0.568788,-0.0928758,-0.204489,0.0318452,-0.505993,-0.0234125
3290-DIEST,-0.408261,-0.154778,0.205379,-0.113264,-0.228694,-0.20728,-0.0415411,0.688422,0.0254565,-0.0110439,0.295601,-0.0371436,-0.292364,0.0422627,-0.0815375
8660-DE PANNE,0.306679,0.581796,0.409418,-0.190743,0.123685,0.0916402,0.162703,0.0629817,-0.387999,0.211608,0.0833794,-0.0272164,-0.321324,0.0388321,-0.03937
1831-DIEGEM,0.398508,-0.128418,-0.0477911,-0.0447365,-0.261024,-0.20665,-0.018717,0.467688,0.522892,0.0277342,0.0866449,-0.175721,-0.209113,-0.0387882,0.364269
9180-MOERBEKE-WAAS,0.262275,-0.283757,0.603279,-0.0384765,0.258529,0.106017,0.107305,0.0399128,-0.0810522,-0.291742,0.0701252,0.294991,-0.0487549,-0.429537,0.15357
8690-ALVERINGEM,0.0130666,0.113177,0.723375,-0.159338,0.0873754,0.0597182,0.192695,0.0760261,-0.365377,0.247742,-0.231292,0.0866831,-0.323727,0.152607,0.0165239
8434-WESTENDE,0.188821,0.41538,0.733531,-0.0151721,0.042821,0.165346,-0.216249,0.303542,-0.149715,0.0432487,0.0239677,0.0212522,-0.172716,0.136046,0.108554
3670-MEEUWEN,-0.139979,-0.0849486,0.0414604,0.204295,-0.108732,-0.23516,0.0151084,-0.00295927,-0.245053,-0.126014,0.192314,-0.0481284,-0.668884,-0.0906521,0.539925
2840-REET,0.176644,-0.42316,0.0670501,0.0506297,-0.59956,0.35018,0.0465666,0.0354227,0.101546,0.0156232,-0.0863347,0.165535,-0.455294,-0.0456188,0.205831
3900-OVERPELT,-0.10316,-0.176641,0.320787,0.113198,0.2024,-0.0245134,0.0715885,0.038458,-0.114317,-0.00532776,0.437423,0.13288,-0.641542,0.052141,0.397341
2310-RIJKEVORSEL,-0.0608982,0.0701616,-0.0112643,-0.276138,-0.0228339,0.486175,0.00451288,0.162593,-0.406038,-0.364196,0.0431529,-0.145344,-0.472901,0.302118,0.127448
2280-GROBBENDONK,-0.210197,0.10422,0.0112335,-0.228099,-0.3234,0.262949,-0.288273,0.275117,-0.0645104,-0.559941,-0.125179,0.222943,-0.407914,-0.0724251,-0.0746458
2620-HEMIKSEM,0.318686,-0.319614,0.195069,0.148108,-0.353914,0.378509,0.119436,0.0197684,-0.0556422,0.0411824,-0.049225,0.281591,-0.568445,-0.170671,-0.1198
België,0.513411,-0.141574,0.204969,0.0112917,0.210378,-0.354483,0.129683,-0.0508977,0.198477,-0.0810879,0.0239998,0.334133,-0.558221,-0.0253031,0.120254
9220-HAMME,0.423271,-0.490832,0.528958,-0.0258473,-0.142179,0.195568,0.116229,-0.0205089,-0.108732,-0.0663478,0.28262,0.174445,-0.0447363,-0.185687,0.253099
3060-BERTEM,0.137283,-0.113697,-0.0208481,-0.29673,0.176034,-0.0167384,0.13088,0.652361,0.342356,-0.145173,0.0521868,0.0266152,-0.0745304,0.0846909,0.501327
1750-LENNIK,0.402991,0.147159,-0.0709805,-0.580469,-0.262835,-0.297401,-0.024287,0.188163,-0.21022,0.141226,0.181126,-0.258853,-0.0965896,0.186181,0.269246
3550-ZOLDER,-0.331361,0.0528769,0.0737251,-0.22753,-0.210215,-0.346134,-0.0746379,0.280327,-0.0944486,0.0283033,0.460041,0.00976837,-0.556641,-0.205764,0.0916684
1060-SINT-GILLIS,0.561928,0.132279,0.0929164,-0.234331,-0.015777,-0.3438,0.110555,-0.0566472,0.351103,0.099451,0.436508,0.079947,-0.33816,-0.0415126,0.152135
3800-ZEPPEREN,-0.15675,0.0530789,0.0162168,-0.422542,0.303614,-0.485605,0.167428,0.441734,-0.209418,0.161513,-0.000189524,-0.0224518,-0.397163,0.0236273,0.117937
9790-WORTEGEM-PETEGEM,0.0361267,-0.0884303,0.325478,-0.312956,-0.3652,-0.230407,0.159944,-0.0419658,0.0766244,-0.324689,-0.0382977,-0.509455,-0.0676751,-0.437345,-0.0709858
1601-RUISBROEK,0.381593,0.235859,-0.112601,-0.240235,-0.575344,-0.270304,-0.209116,0.0183605,-0.0193419,0.183355,0.209978,-0.147576,-0.285215,0.126825,0.287958
8870-IZEGEM,0.0288443,0.109457,0.403717,0.0480083,-0.456778,-0.183009,0.554063,0.160898,0.0315003,-0.289102,-0.116502,-0.2202,-0.157462,0.274528,-0.00937406
2660-HOBOKEN,0.501556,-0.0651067,0.033496,-0.17499,-0.192766,0.34083,0.190257,0.0980795,0.0220896,0.0381213,0.179519,0.231791,-0.579126,-0.244414,-0.174062
Regio Roeselare - Izegem,0.0458881,0.0844877,0.509669,-0.0596344,-0.310061,-0.119583,0.577043,0.158425,0.0385462,-0.28811,-0.114042,-0.138005,-0.169539,0.305327,-0.142866
2580-PUTTE,0.0589384,-0.122803,-0.219718,-0.0303247,-0.579882,-0.042779,-0.132949,0.546723,0.122679,-0.296788,-0.265018,0.262354,-0.165126,0.0844876,0.0312081
8540-DEERLIJK,0.0171284,0.347171,0.352462,0.0385923,-0.588302,-0.134091,0.286703,-0.0488792,0.0253702,-0.278521,-0.140548,-0.282606,-0.282412,-0.181366,-0.119605
9450-HAALTERT,0.446963,-0.291887,0.149829,-0.307486,-0.144409,-0.414055,0.0199597,0.0481198,-0.452465,-0.145767,0.144854,-0.220156,-0.00358515,0.0615417,0.322174
2380-RAVELS,-0.0954922,0.140993,0.249147,-0.200503,0.0287033,0.483299,0.0174058,-0.076511,-0.175048,-0.45777,0.333617,-0.108573,-0.493135,0.060293,0.134416
2950-KAPELLEN,0.168472,-0.223679,-0.0394681,-0.410995,0.23056,0.2743,0.228255,0.33848,-0.269615,-0.00348834,-0.320146,0.234239,-0.45588,0.106632,-0.0823431
3390-TIELT-WINGE,-0.313318,-0.120404,0.195806,-0.333801,-0.261122,0.092688,0.0278949,0.717219,-0.0970554,-0.0204732,0.0576134,0.0992776,0.0699769,0.161617,0.302627
Regio Herentals - Westerlo,-0.310997,-0.0960281,0.0670206,-0.202486,-0.23793,0.147049,-0.213976,0.427472,0.0215922,-0.558136,0.123692,0.245509,-0.380066,0.0886516,-0.0441512
2980-SINT-ANTONIUS-ZOERSEL,0.00740021,-0.0380017,-0.100818,-0.333837,-0.290995,0.271278,-0.161535,0.116944,-0.561963,-0.339628,-0.23575,-0.0471122,-0.385817,0.159293,-0.125197
1731-RELEGEM,0.393105,-0.214668,0.118681,0.066852,-0.443003,-0.208351,-0.094303,0.0831328,0.0807949,0.154764,0.378617,-0.203051,-0.197772,0.171723,0.491633
2430-LAAKDAL,-0.293227,-0.153895,0.191215,-0.0854947,-0.263559,-0.119343,-0.175283,0.379013,0.0786292,-0.320805,0.425551,0.277892,-0.425555,0.0443839,-0.194673
2460-LICHTAART,-0.241401,0.0650993,0.117779,-0.103063,-0.280596,0.333653,-0.176659,0.197523,-0.108728,-0.544114,0.309516,0.10857,-0.48106,0.0716552,-0.0262573
9500-GERAARDSBERGEN,0.28245,-0.0821497,0.0573152,-0.691591,-0.237029,-0.273226,0.0681161,-0.0254956,-0.215076,-0.170607,-0.0258709,-0.454774,-0.0178401,-0.0594746,0.0951653
1080-SINT-JANS-MOLENBEEK,0.551729,0.199531,-0.0173103,-0.31253,-0.215139,-0.300491,0.1514,0.056955,0.212175,0.2046,0.438773,0.0182168,-0.245958,-0.0629819,0.225537
2450-MEERHOUT,-0.238191,-0.20261,0.183692,0.0792886,-0.112716,-0.0641038,-0.123039,0.274178,-0.00639956,-0.363219,0.417889,0.248534,-0.57222,0.206653,-0.128638
2275-LILLE,-0.201373,0.132354,0.0836674,-0.292069,-0.349104,0.302764,-0.195428,0.103366,-0.210427,-0.441321,0.117458,0.0350045,-0.500469,0.287005,-0.017436
1930-ZAVENTEM,0.364426,-0.0785539,0.00433028,-0.173107,-0.0858612,-0.0395808,0.0523436,0.565314,0.487397,-0.0511914,0.188395,-0.159796,-0.16819,-0.00890842,0.412563
1654-HUIZINGEN,0.226547,0.255194,-0.0899597,-0.365738,-0.602462,-0.306886,-0.223062,0.0698323,0.0500256,-0.0509579,0.255897,-0.177095,-0.114307,0.221487,0.256624
9090-MELLE,0.404726,0.106209,0.340932,-0.362046,-0.0322883,-0.316765,0.211101,0.0114906,-0.255016,-0.397606,-0.0566716,0.109389,0.148496,-0.301627,0.283188
3840-HOEPERTINGEN,-0.0350853,-0.158711,0.146888,-0.288317,0.354363,-0.389986,0.0643163,0.528339,-0.286874,0.209902,0.156617,-0.0470439,-0.370099,-0.129679,0.0323849
8581-KERKHOVE,-0.0963231,0.0720959,0.43698,-0.224988,-0.360726,-0.143441,0.0991508,-0.26933,-0.22772,-0.196716,-0.0462771,-0.425781,-0.338631,-0.307243,-0.166826
Regio Menen - Wevelgem,-0.0995431,0.288783,0.550533,-0.0638156,-0.375211,-0.048449,0.422842,0.148933,0.0846073,-0.113799,-0.397018,-0.128387,-0.219908,-0.113352,0.0025384
3040-HULDENBERG,0.245208,0.078,-0.0852535,-0.24947,0.164463,-0.0241716,0.161862,0.508712,0.322062,-0.0793531,0.225744,-0.0364574,-0.171741,0.375127,0.468124
8902-ZILLEBEKE,-0.0326306,-0.051948,0.583205,-0.14822,-0.204183,-0.0479936,0.434594,0.323415,0.0470409,0.280583,-0.381407,0.0809401,-0.175789,0.133514,-0.122416
8770-INGELMUNSTER,-0.00719946,0.168343,0.394507,0.211737,-0.403194,-0.182791,0.521551,-0.00136724,-0.0809071,-0.336788,-0.181326,-0.199832,-0.25277,0.139477,0.164359
2200-HERENTALS,-0.0919936,0.0281903,-0.0938159,-0.0469133,-0.259197,0.094725,-0.262313,0.36318,-0.228262,-0.567716,0.322597,0.119004,-0.40359,0.0122608,-0.217267
3941-EKSEL,-0.312054,-0.133779,0.335767,0.108053,-0.0215063,-0.29537,-0.0253937,-0.0554268,-0.158093,-0.254705,0.135449,0.193313,-0.669466,0.0578551,0.267901
Regio Tielt,0.0487944,0.109111,0.456003,0.195253,-0.250444,-0.357266,0.377434,0.15386,0.0519103,-0.451693,-0.23268,-0.20143,-0.201079,0.177085,-0.0996703
2275-GIERLE,-0.184445,0.233476,0.105993,-0.332831,0.0162284,0.375628,-0.0888782,0.143846,-0.213895,-0.551801,0.131352,0.150065,-0.453937,0.12162,0.093001
9680-ETIKHOVE,0.165398,-0.0543568,0.374381,-0.359864,-0.198558,-0.281589,0.0528199,-0.200908,-0.15947,-0.184012,-0.0691485,-0.501075,-0.171876,-0.437025,-0.049729
9051-GENT,0.483474,0.25549,0.266339,-0.269842,-0.0245062,-0.183439,-0.0303557,0.0835731,-0.155469,-0.605133,0.115478,-0.121209,0.100909,-0.293419,-0.0202178
9340-OORDEGEM,0.2537,-0.202792,0.114902,-0.203257,-0.230373,-0.282322,0.0320508,0.126551,-0.643409,-0.362089,0.052956,-0.0588274,0.160134,-0.00302745,0.336414
8501-BISSEGEM,-0.0844494,0.345357,0.423366,-0.1419,-0.43415,0.0830816,0.398265,0.0403192,0.287233,-0.213173,-0.254191,-0.193121,-0.29104,-0.0596851,0.0216922
1931-BRUCARGO,0.332869,-0.100352,0.0201825,0.0467155,-0.266514,-0.0320208,-0.106619,0.436336,0.466851,0.0659202,-0.0187227,-0.20588,-0.216531,-0.0259886,0.538639
7700-MOESKROEN,-0.0432012,0.362989,0.264473,-0.241588,-0.457525,-0.0531244,0.498677,0.0498421,0.134281,0.00123834,-0.347786,-0.158422,-0.227242,-0.209611,0.122824
2330-MERKSPLAS,0.0128392,0.218217,0.146183,-0.40852,0.106031,0.413802,-0.255364,-0.0178395,-0.169958,-0.33262,0.0778397,0.059063,-0.498923,0.218929,0.264634
8460-OUDENBURG,0.226908,0.197569,0.537944,0.207043,-0.103299,0.0527584,-0.146391,0.420572,-0.151367,-0.0434893,0.047775,-0.307262,-0.250307,0.424254,0.0363601
Regio Veurne,0.214109,0.375559,0.68653,-0.0966236,-0.0492346,0.0466698,0.159146,0.0649841,-0.295831,0.260454,0.0115901,0.0466807,-0.341379,0.144623,-0.0563868
3190-BOORTMEERBEEK,0.0637493,-0.113444,-0.148774,0.00879939,-0.455016,0.0643194,-0.121721,0.606562,0.314769,-0.229727,-0.0722869,-0.139562,-0.0824327,-0.0523939,0.425262
1861-WOLVERTEM,0.306479,-0.437371,0.183022,0.143827,-0.425363,0.0333238,0.0102646,0.176938,0.140078,0.186575,0.243349,-0.207181,-0.164935,-0.0819882,0.506594
Regio Dendermonde - Wetteren,0.522427,-0.281305,0.354222,-0.0291568,-0.318085,-0.179545,0.0532232,-0.0168511,-0.327943,-0.247153,0.142394,0.115351,0.0792161,-0.162845,0.387397
9473-WELLE,0.459575,-0.322425,0.0991962,-0.198616,-0.189238,-0.36365,-0.0670422,0.0448578,-0.410849,0.000639863,0.222501,-0.299292,-0.0810563,0.241332,0.297144
3680-NEEROETEREN,-0.145673,-0.339026,0.111004,0.179487,-0.0149795,-0.206119,-0.0384684,0.0191045,-0.240471,-0.0678922,-0.267631,-0.21112,-0.640284,-0.0152786,0.431182
3220-HOLSBEEK,-0.0830694,-0.127017,0.0972924,-0.210103,-0.201648,-0.0605723,0.153022,0.755406,0.190959,-0.119041,0.100276,0.243189,0.0975515,0.165766,0.357974
8851-KOOLSKAMP,0.104264,-0.0408555,0.457719,0.233274,-0.204932,-0.0552819,0.416433,0.166559,-0.24215,-0.478008,-0.159123,-0.183153,-0.140269,0.322359,-0.0879781
2820-RIJMENAM,0.0303246,-0.167663,-0.173609,-0.141579,-0.418981,0.0501476,-0.0777816,0.422725,0.180441,-0.195894,-0.539998,0.150761,-0.139396,0.0431929,0.38913
8200-SINT-ANDRIES,0.504306,0.256673,0.278137,0.124755,0.218925,-0.189072,0.0887111,0.359495,-0.0529808,-0.172847,-0.191977,-0.274142,-0.358934,0.211344,-0.218851
3080-TERVUREN,0.331718,0.0588176,-0.0349252,-0.275799,0.0737145,-0.0542971,0.0255564,0.421816,0.335018,-0.0205613,0.258326,0.0456824,-0.163509,0.423401,0.484532
Regio Turnhout,-0.0826626,0.20461,0.0784309,-0.19036,0.06934,0.405843,-0.0818193,0.0972062,-0.121385,-0.440102,0.324686,0.00251975,-0.599222,0.194291,0.112184
9940-ERTVELDE,0.246975,-0.182652,0.389461,-0.0565588,0.188794,-0.137615,-0.055236,0.163705,-0.260627,-0.540768,-0.404574,0.304803,0.056686,-0.169982,0.131464
Regio Hasselt,-0.180123,0.0675651,-0.10666,0.0229424,0.0199161,-0.409424,0.107386,0.46132,-0.178271,0.0303362,0.243824,-0.171581,-0.603632,-0.250132,0.10093
1560-HOEILAART,0.332792,0.098873,0.0756531,-0.262692,0.168429,-0.189485,0.00388792,0.25166,0.449045,-0.0960078,0.250988,0.251355,-0.193786,0.386801,0.391051
9185-WACHTEBEKE,0.258087,-0.252897,0.597652,-0.298384,0.247838,-0.0146061,-0.0496063,0.10649,-0.0757612,-0.276135,-0.260033,0.27545,0.0391236,-0.334296,0.0949236
8670-KOKSIJDE,0.246827,0.258317,0.654554,-0.116604,-0.0388153,-0.0785085,0.102826,0.127343,-0.233231,0.401265,0.103158,0.0603354,-0.316895,0.177034,-0.185462
8550-ZWEVEGEM,-0.00184235,0.371511,0.476847,-0.203388,-0.514287,-0.109803,0.149783,-0.111776,0.072624,-0.237055,-0.220242,-0.298734,-0.268315,-0.0879719,-0.0529052
1880-KAPELLE-OP-DEN-BOS,0.448414,-0.19879,-0.092313,-0.056069,-0.402747,0.119022,0.17989,0.172538,0.147695,0.174012,0.10994,0.0247743,-0.192001,-0.0251159,0.637927
8400-OOSTENDE,0.436086,0.335302,0.476993,0.434518,0.0726865,-0.0895847,0.146501,0.231801,0.0162128,0.0889759,0.0337993,0.11175,-0.377371,0.168375,-0.00099734
9290-OVERMERE,0.287745,-0.223501,0.509983,-0.147318,-0.218173,-0.0331045,0.151936,0.0556619,-0.48112,-0.110606,0.134056,0.296619,0.154474,-0.0328608,0.368756
9042-DESTELDONK,0.304523,0.10218,0.454773,-0.148693,0.104096,-0.181781,-0.0998898,0.0932888,-0.0794006,-0.547551,-0.216367,0.307997,0.0795547,-0.364765,0.13476
9404-ASPELARE,0.452674,0.074531,0.219909,-0.5145,-0.0979966,-0.333491,-0.0740018,-0.0693347,-0.46975,0.193564,-0.0982785,-0.0280411,-0.086005,-0.0946346,0.245825
1170-WATERMAAL-BOSVOORDE,0.295503,0.329538,-0.120312,-0.334069,-0.0478919,-0.234434,0.143373,0.134608,0.460016,-0.0745443,0.391618,0.0255865,-0.271349,0.0563482,0.366171
3071-ERPS-KWERPS,0.0680642,0.125948,-0.0584935,-0.237271,-0.413016,-0.0331782,0.301729,0.306444,0.425602,-0.112184,0.11471,0.202703,-0.015117,0.0173879,0.560941
2110-WIJNEGEM,0.163737,-0.176912,0.00561984,-0.407565,-0.20181,0.293905,-0.0343807,0.169981,-0.174353,-0.092803,-0.321262,0.201848,-0.574599,-0.102107,-0.308246
8450-BREDENE,0.392867,0.247572,0.581966,0.0913071,-0.00744333,0.231202,-0.135118,0.499811,-0.0919675,-0.0882801,0.0271663,-0.175742,-0.0882756,0.24513,-0.00305563
Provincie West-Vlaanderen,0.355701,0.410158,0.441527,-0.0531109,-0.0022149,-0.128087,0.478681,0.216224,0.145768,-0.159286,-0.119914,-0.136864,-0.245999,0.0585025,-0.267416
2630-AARTSELAAR,0.408732,-0.299205,0.00146854,0.0832245,-0.465199,0.353758,0.0821705,0.0333019,0.10283,-0.0977792,-0.0417544,0.0953444,-0.566767,-0.184604,-0.0282462
3520-ZONHOVEN,-0.238836,0.0141353,0.116313,0.109577,-0.0967999,-0.494985,-0.0479789,0.378949,-0.110687,-0.0214282,0.169859,-0.00735607,-0.590048,-0.321638,0.153989
9900-EEKLO,0.412273,-0.182676,0.318647,0.168339,0.20388,-0.423503,-0.217266,0.137328,-0.0682659,-0.408452,-0.364396,0.12377,-0.141489,-0.176273,0.09546
2242-PULDERBOS,-0.146276,-0.0167713,-0.0660858,-0.430052,-0.330476,0.246859,-0.18317,0.246128,-0.24449,-0.542915,-0.0221,0.0579273,-0.319476,-0.0409309,-0.250219
3530-HOUTHALEN-HELCHTEREN,-0.163934,0.0647024,0.101371,0.245504,-0.105866,-0.464119,-0.0120795,0.219517,-0.0934847,-0.093378,0.339546,0.0232544,-0.63187,-0.245013,0.175675
8370-BLANKENBERGE,0.326981,-0.0627791,0.520415,0.301082,0.0328019,0.0379089,-0.0857674,0.551724,-0.0607402,0.077939,-0.0796694,-0.312917,-0.199371,-0.00779841,-0.244037
3940-HECHTEL-EKSEL,-0.214323,0.101465,0.308021,0.0798948,0.0148318,-0.210739,0.0633306,0.00188424,-0.181739,-0.0207576,0.317916,0.268378,-0.664089,0.100544,0.369032
2590-BERLAAR,0.00343889,0.0164727,-0.107348,-0.0781495,-0.586768,0.10359,-0.293847,0.47321,-0.144897,-0.321124,-0.229788,0.330586,-0.0859451,-0.13355,-0.0731936
3511-KURINGEN,-0.314575,0.150916,0.0375003,-0.07316,-0.123417,-0.45751,0.102513,0.518037,-0.303238,-0.0322587,0.18411,-0.125888,-0.428857,-0.202081,0.0244109
9400-DENDERWINDEKE,0.407994,-0.0752546,0.135006,-0.38386,-0.267439,-0.331688,-0.425075,0.000669513,-0.352924,0.0607474,-0.0132014,-0.29779,-0.149961,-0.0550896,0.239687
9500-OPHASSELT,0.234452,0.0310762,0.0576726,-0.453324,-0.262855,-0.396481,-0.315854,-0.161393,-0.464283,-0.0775931,-0.0660689,-0.296555,-0.240037,-0.0739446,0.0784907
1602-VLEZENBEEK,0.310984,0.224373,-0.0934476,-0.39735,-0.439988,-0.322781,0.00621871,0.0433038,-0.229131,0.167725,0.304994,-0.0482341,-0.159983,0.164905,0.397325
3940-HECHTEL,-0.26742,0.0106531,0.377702,0.154765,0.0237034,-0.245962,0.00146222,0.0983075,-0.289913,-0.0578981,0.363633,0.0540088,-0.656243,0.0154294,0.193896
2260-OEVEL,-0.271144,-0.253006,0.153262,0.0512072,-0.215113,0.134308,-0.194182,0.402356,-0.115343,-0.478744,0.272193,0.32067,-0.371201,0.0876915,-0.0868859
3130-BETEKOM,-0.151929,-0.250452,0.00974825,0.118696,-0.311175,-0.0444017,-0.0958012,0.712485,0.0539215,-0.409273,0.0837682,0.0741303,0.0758678,-0.000957223,0.309374
2060-ANTWERPEN,0.492087,0.0643619,-0.0370272,-0.342535,0.0583738,0.262495,0.0153145,0.202308,0.103857,-0.0716186,0.0261552,0.260986,-0.582266,-0.19406,-0.245205
8820-TORHOUT,0.28192,0.260925,0.415512,0.130328,-0.0388338,-0.0869639,0.292037,0.302851,-0.172624,-0.246708,-0.13206,-0.194462,-0.265949,0.508026,-0.0446084
3740-BEVERST,-0.162624,0.048943,0.191765,-0.147754,0.0975228,-0.465085,0.193048,0.161827,-0.157994,0.15619,-0.122838,-0.0229497,-0.640296,-0.371681,-0.10092
2570-DUFFEL,0.286086,-0.174339,-0.210366,-0.0233334,-0.537861,0.140374,-0.373992,0.423054,0.0418908,-0.181533,-0.238448,0.154798,-0.290513,-0.0778059,0.0955897
8310-SINT-KRUIS,0.545666,0.107355,0.290535,0.148285,0.245298,-0.291723,0.196363,0.307737,0.00678036,-0.0377311,-0.190148,-0.284363,-0.36086,0.182237,-0.15451
2020-ANTWERPEN,0.414836,-0.107567,-0.0704922,-0.352545,-0.114662,0.325896,0.119666,0.203141,0.126677,-0.0501731,-0.0244091,0.127458,-0.575621,-0.309737,-0.222396
2600-BERCHEM,0.433133,0.00320621,-0.103211,-0.397218,-0.192924,0.270249,0.0616999,0.136209,0.0655157,-0.115383,-0.0456901,0.0850752,-0.596439,-0.276042,-0.229056
9450-DENDERHOUTEM,0.425621,-0.296485,0.068405,-0.291303,-0.164935,-0.298891,0.0685278,-0.12083,-0.539499,-0.0309454,0.11272,-0.309095,-0.136193,0.140051,0.259127
3128-BAAL,-0.111391,-0.173105,-0.0301126,0.117399,-0.440552,-0.0289545,-0.129227,0.716982,-0.00308353,-0.347088,-0.00455224,0.164592,0.0509391,0.133727,0.221769
3621-REKEM,-0.113061,-0.118742,0.0239814,0.126847,-0.116904,-0.373529,0.138335,0.233602,-0.0282619,0.140538,-0.255113,-0.126953,-0.627253,-0.36914,0.313204
8956-KEMMEL,0.0126522,0.0184439,0.533962,-0.360556,0.0206855,-0.100542,0.549784,0.21973,0.071215,0.22353,-0.34389,0.179741,-0.103757,0.0681539,0.0478427
9040-SINT-AMANDSBERG,0.411814,0.209593,0.278645,-0.306975,0.237571,-0.282423,0.00965219,0.0130592,-0.0825836,-0.561235,-0.000898932,0.135686,0.0122869,-0.359891,0.0908221
8830-HOOGLEDE,0.0186455,0.2067,0.370934,-0.00617176,-0.156224,-0.0765488,0.508867,0.125553,-0.238246,-0.28896,-0.136376,-0.168623,-0.256125,0.505878,0.0742892
8730-OEDELEM,0.282199,-0.11092,0.29675,0.0158773,0.273417,-0.376153,0.015697,0.183841,-0.318127,-0.215425,-0.411315,-0.242499,-0.306888,0.221265,-0.225209
4830-LIMBOURG,-0.0334066,0.0858332,-0.0305002,0.318007,0.114247,-0.354277,0.328486,0.376381,-0.149631,-0.0247499,0.107891,-0.0450293,-0.488361,-0.379136,0.287083
Regio Asse,0.447754,-0.22825,0.127331,-0.162962,-0.353127,-0.154426,0.00279323,0.224192,-0.237994,0.177147,0.376776,-0.24951,-0.0670493,0.229262,0.395649
3360-LOVENJOEL,-0.00508521,0.0238489,-0.0481693,-0.46111,-0.0207794,-0.187983,0.188553,0.774653,0.241759,-0.0535532,0.136776,0.0258584,-0.0022685,0.0452856,0.174091
2880-BORNEM,0.367392,-0.512653,0.288965,0.0435874,-0.272138,0.345826,0.157474,-0.0337093,0.00374775,-0.171793,0.0924346,0.284836,-0.249689,-0.178261,0.28965
8760-MEULEBEKE,0.0188845,-0.0312047,0.266474,0.158847,-0.399105,-0.360586,0.479923,0.0916022,0.0603633,-0.371481,-0.142388,-0.30492,-0.248493,0.221853,-0.0924327
2800-MECHELEN,0.27383,-0.0825,0.012811,-0.125829,-0.336173,0.17576,-0.286443,0.33363,0.241769,0.0156582,-0.304064,0.359529,-0.362927,-0.0975484,0.378558
8700-TIELT,0.172976,0.108059,0.299672,0.179251,-0.219247,-0.360636,0.495603,0.181124,-0.0135846,-0.502968,-0.181566,-0.158249,-0.164352,0.165209,-0.120156
3220-SINT-PIETERS-RODE,-0.111138,0.0146147,-0.0250899,-0.298188,-0.0801243,-0.0562827,0.0300984,0.773753,0.150303,-0.0817103,0.180329,0.327096,-0.113472,0.241471,0.22077
8610-HANDZAME,0.132634,0.287467,0.437222,-0.0998478,-0.0489526,-0.0782758,0.46541,0.264804,-0.341378,-0.0639057,-0.161345,-0.0495203,-0.144001,0.479703,0.0585509
8610-KORTEMARK,0.104,0.0587884,0.520935,0.102794,-0.180384,-0.0809366,0.416466,0.200125,-0.31024,-0.0615621,-0.0688462,-0.016748,-0.248311,0.533228,-0.0124617
3581-BEVERLO,-0.189503,0.0903192,0.305005,0.0635421,-0.195465,-0.154286,-0.163877,0.175331,-0.0438307,-0.0214818,0.635246,0.0385901,-0.499248,-0.280062,0.064545
9770-KRUISHOUTEM,0.0521902,0.0688352,0.389127,-0.0276437,-0.499222,-0.216733,-0.0127407,-0.117292,-0.119111,-0.535118,-0.183299,-0.276995,-0.0876168,-0.333636,-0.0196428
2270-HERENTHOUT,-0.20631,0.040531,-0.0633604,-0.0683381,-0.513971,0.139167,-0.315803,0.396785,-0.126475,-0.475872,-0.0768191,0.244683,-0.299806,0.0611777,-0.0675122
Regio Aalst,0.551366,-0.267987,0.150237,-0.18651,-0.244753,-0.315221,0.0556315,-0.042484,-0.445611,-0.174564,0.32136,-0.140682,-0.00644233,-0.00285588,0.224717
8850-ARDOOIE,-0.0184252,-0.039462,0.368402,0.174694,-0.323111,-0.17094,0.5663,0.176197,-0.113309,-0.284057,-0.0558349,-0.227533,-0.18784,0.395051,-0.0820874
8300-KNOKKE-HEIST,0.28886,0.0252363,0.393652,0.188443,0.307375,0.0952879,0.0298197,0.527147,-0.0102929,-0.26376,-0.117745,-0.421056,-0.183577,-0.0837341,-0.203911
9300-AALST,0.387275,-0.330321,0.432029,-0.328395,-0.0359626,-0.240645,-0.139744,-0.203028,-0.140533,-0.0934031,0.170659,-0.167742,-0.115983,0.0887366,0.468402
3400-LANDEN,-0.14837,-0.0824813,0.073088,-0.580952,0.137809,-0.144585,0.225979,0.649806,-0.0469859,0.227332,0.155312,-0.103889,-0.124497,-0.0732282,0.0738991
9150-BAZEL,0.618637,-0.00294801,0.089129,-0.339665,-0.162557,0.165608,0.257999,0.0625013,-0.0851115,0.129042,0.280861,0.0695382,-0.225435,-0.456887,-0.0496126
1702-GROOT-BIJGAARDEN,0.552527,0.00070738,0.105137,-0.253108,-0.303885,-0.251247,-0.108666,0.168306,0.0450053,0.157464,0.35065,-0.258984,-0.150295,0.199259,0.380591
9260-WICHELEN,0.259375,-0.185217,0.334636,-0.13859,-0.205204,-0.199969,0.0796851,0.0549905,-0.549695,-0.255022,0.253588,0.147069,0.157151,-0.0848724,0.436719
9200-SCHOONAARDE,0.359019,-0.24766,0.372076,-0.120998,-0.0397369,-0.0807212,0.0759684,0.0728762,-0.488788,-0.0171641,0.155086,0.169114,0.0644577,-0.0733382,0.579757
1502-LEMBEEK,0.252796,0.376742,-0.00344494,-0.507844,-0.541262,-0.209881,-0.0450148,0.161569,-0.0844295,0.197833,0.260641,-0.0895006,-0.0852112,0.167537,0.116432
9080-LOCHRISTI,0.385822,0.0554348,0.440186,-0.117804,0.103467,-0.1245,-0.0146291,0.0543201,-0.198731,-0.537298,-0.0249092,0.274249,0.109351,-0.3378,0.28456
Regio Waregem,0.0700111,0.14778,0.486731,-0.0329776,-0.514372,-0.138111,0.128438,-0.0596639,0.0631432,-0.425703,-0.161501,-0.367351,-0.224331,-0.0613034,-0.176732
1190-VORST,0.415803,0.340505,0.014241,-0.243611,-0.393487,-0.230552,0.0419076,0.0461203,0.230727,0.134232,0.45096,0.0142429,-0.299115,0.118083,0.248015
8740-PITTEM,0.0496791,0.0375909,0.31429,0.289953,-0.336383,-0.2082,0.422707,0.0888554,-0.0319591,-0.487241,-0.150889,-0.188195,-0.24075,0.339226,0.0233705
1790-AFFLIGEM,0.452305,-0.366488,0.199737,-0.266998,-0.173041,-0.224855,-0.0696488,0.17307,-0.397701,0.124876,0.193243,-0.191109,-0.014627,0.238567,0.360366
2870-PUURS,0.413374,-0.561279,0.14209,0.193043,-0.431433,0.307949,-0.00572396,0.0716685,-0.0785465,-0.134739,0.0506213,0.0331349,-0.312426,-0.155757,0.143673
Regio Tienen,-0.179564,-0.0674205,0.0525117,-0.564209,-0.0506308,-0.115396,0.0997925,0.702022,-0.0490103,0.194461,0.112281,-0.10707,-0.036422,-0.17926,0.160315
3850-NIEUWERKERKEN,-0.303563,-0.0562137,0.113349,-0.431339,0.157757,-0.330558,0.085132,0.522322,-0.417918,0.0825358,0.0991222,-0.119137,-0.260312,-0.13525,-0.00484795
3945-OOSTHAM,-0.407468,-0.0186984,0.396644,0.1118,-0.413326,-0.236157,-0.127449,0.1467,-0.155403,-0.215768,0.269877,0.193647,-0.421104,0.0347319,-0.199622
Regio Lier - Heist o/d Berg,-0.0894343,-0.222773,-0.137703,-0.0256355,-0.454626,0.0708622,-0.317128,0.510832,-0.0157811,-0.318718,-0.291107,0.257675,-0.307321,-0.0459653,0.000628274
3530-HELCHTEREN,-0.157854,0.282873,0.108839,0.295962,-0.223471,-0.38299,0.0262835,0.155381,-0.159476,-0.124038,0.314256,0.174317,-0.488977,-0.211387,0.347026
9860-SCHELDEWINDEKE,0.12531,0.121315,0.301882,-0.438374,-0.204342,-0.358014,-0.0824409,-0.0311287,-0.572611,-0.331235,-0.119776,-0.0534544,0.0661489,-0.0944943,0.201176
8551-HEESTERT,-0.0598948,0.26218,0.571887,-0.1939,-0.345629,-0.0737036,0.18307,-0.0131808,-0.0773342,-0.056,-0.209095,-0.447156,-0.291761,-0.210227,-0.149452
3130-BEGIJNENDIJK,0.00132949,-0.1044,-0.118958,0.00282705,-0.369039,-0.143293,-0.0424315,0.66729,0.0844458,-0.3482,0.133099,0.289999,0.0180897,0.369962,0.061267
3120-TREMELO,-0.075387,-0.133293,-0.0768471,-0.0848162,-0.52361,-0.0543362,-0.146484,0.743254,0.0873762,-0.215048,-0.04317,0.165295,0.0276481,0.0546444,0.160095
2240-MASSENHOVEN,-0.0714051,0.146612,-0.0904491,-0.222833,-0.321909,0.214631,-0.293279,0.311975,-0.323757,-0.338323,-0.314269,0.0340148,-0.348164,-0.215776,-0.309124
8791-BEVEREN-LEIE,0.0427536,0.344708,0.45433,0.134697,-0.502547,-0.159595,0.334678,-0.0923394,0.00871196,-0.305015,-0.195316,-0.158779,-0.280837,-0.144138,-0.0107808
3590-DIEPENBEEK,-0.19004,0.0535875,0.0181166,-0.0287291,0.0874349,-0.444785,0.0622023,0.398442,-0.261351,0.00129593,0.100066,-0.180209,-0.573158,-0.385778,0.0602148
8980-ZONNEBEKE,-0.111738,-0.0235746,0.621796,-0.2127,-0.303756,0.0291611,0.482004,0.27796,-0.147391,0.0261707,-0.327488,0.0362534,-0.018002,0.126694,-0.0709358
3110-ROTSELAAR,-0.124577,-0.0733402,0.0336237,-0.0923156,-0.287163,0.0229579,-0.0355007,0.75151,0.313728,-0.340343,0.0937964,0.0449758,0.0212846,-0.0344921,0.306121
3950-KAULILLE,-0.113601,-0.385785,0.27863,0.167376,0.0667464,-0.233272,0.0326555,-0.0877205,-0.247705,-0.0204698,0.116064,-0.103974,-0.683852,0.134794,0.305126
2235-WESTMEERBEEK,-0.222272,-0.17771,-0.0325929,-0.0430681,-0.319455,-0.0392117,0.207521,0.585433,-0.187009,-0.343262,-0.0689767,0.468558,0.0182155,0.20512,-0.0848541
2018-ANTWERPEN,0.383322,-0.163654,0.0544365,-0.463835,-0.109626,0.123163,0.137967,0.157061,0.216369,0.0283252,0.0459012,0.335436,-0.527177,-0.115088,-0.289624
8490-JABBEKE,0.438576,0.129382,0.483361,0.221772,-0.0204215,0.0157687,-0.0860445,0.362198,-0.143442,-0.222609,-0.0478947,-0.256089,-0.248605,0.383075,-0.149253
1600-SINT-PIETERS-LEEUW,0.255259,0.334589,0.0873633,-0.427877,-0.497004,-0.241254,-0.308374,0.137578,0.0374656,0.0623645,0.208183,-0.166075,-0.106824,0.169614,0.310723
2890-SINT-AMANDS,0.279433,-0.592046,0.110431,0.234493,-0.317619,0.264602,0.203401,0.123735,-0.260217,-0.0328019,0.221146,-0.0854949,-0.177208,-0.1485,0.313337
9308-HOFSTADE,0.385543,-0.457558,0.178455,-0.234413,-0.183579,-0.120507,0.058792,0.154847,-0.458813,-0.266093,0.284552,-0.108567,0.147988,0.182007,0.224603
3530-HOUTHALEN,-0.331542,0.0468308,0.124125,0.123501,-0.164615,-0.356623,-0.0444757,0.244836,-0.170949,-0.0782649,0.207804,-0.0892127,-0.669955,-0.229255,0.230519
Regio Diksmuide,0.129039,0.286267,0.626704,-0.0713736,-0.0139019,0.130546,0.268389,0.284925,-0.364851,0.0798423,-0.154933,-0.0323323,-0.224599,0.343667,0.00243716
Regio Oudenaarde - Ronse - Brakel,0.0913892,-0.12681,0.318681,-0.365144,-0.31322,-0.276717,-0.0960591,-0.159572,-0.14743,-0.263716,-0.142078,-0.517544,-0.161192,-0.354971,-0.00177272
9130-DOEL,0.212866,-0.4242,0.142702,-0.178154,0.274792,0.242914,0.399818,0.130071,-0.204778,-0.273904,-0.0168857,0.0328438,-0.353169,-0.392632,-0.11891
3971-HEPPEN,-0.296087,0.0635834,0.359139,0.160512,-0.332923,-0.240471,-0.162019,0.0882921,-0.196727,-0.108487,0.391567,0.213621,-0.543983,-0.0652501,-0.0350702
9850-LANDEGEM,0.484119,0.18636,0.344544,-0.270821,-0.0050182,-0.402231,0.355259,0.0702593,0.00390016,-0.394044,-0.210022,0.049812,0.0671604,-0.198066,0.0163298
9270-KALKEN,0.316021,0.174587,0.351224,-0.200718,-0.0639881,-0.227337,0.249395,-0.155814,-0.362084,-0.0771274,0.226725,0.514887,0.0189827,-0.0695222,0.324023
8490-VARSENARE,0.470047,0.289352,0.509927,0.107896,0.13616,-0.189513,0.0792345,0.343714,0.0235573,-0.0727786,-0.250125,-0.147004,-0.275004,0.275622,-0.0563234
2520-RANST,0.0885208,-0.0241742,-0.124145,-0.217202,-0.322625,0.372365,-0.151148,0.405166,-0.191316,-0.239394,-0.348946,0.15052,-0.448256,-0.150446,-0.193249
1840-MALDEREN,0.277377,-0.562452,0.2248,-0.0394765,-0.392694,0.11995,0.212194,0.0971914,0.0262131,0.144535,-0.0290261,-0.111685,-0.0813656,-0.0955381,0.530005
Regio Waasland,0.362165,-0.422609,0.453012,-0.103997,-0.00810295,0.200638,0.314824,-0.0261158,-0.0239071,-0.214412,0.115933,0.202176,-0.110306,-0.457811,0.107086
1930-NOSSEGEM,0.28637,-0.00709028,-0.0115335,0.0339313,-0.04118,-0.239952,-0.0153108,0.549489,0.451353,-0.0453036,0.0804563,0.0246358,-0.162222,-0.017247,0.561913
1150-SINT-PIETERS-WOLUWE,0.466882,0.129554,0.0235183,-0.342196,0.0226443,-0.189452,0.293095,0.208602,0.403748,0.117624,0.378192,-0.00570897,-0.206659,0.0837296,0.334864
2150-BORSBEEK,0.338574,0.0631892,-0.328364,-0.288742,-0.34677,0.0921955,0.0397376,0.115141,-0.122885,-0.106804,-0.252684,0.144323,-0.579564,-0.200131,-0.243846
2040-ANTWERPEN,0.109766,-0.575334,0.185733,-0.202945,0.16072,0.13124,0.0564889,0.10463,-4.29468e-05,-0.202564,-0.208732,0.212558,-0.499169,-0.220089,-0.310926
2235-HOUTVENNE,-0.209546,-0.168172,0.116313,0.0824691,-0.407595,0.0367971,-0.0392198,0.640346,-0.0850593,-0.284646,-0.0360286,0.461059,-0.0362586,0.136542,-0.0794901
8900-IEPER,-0.045613,0.174086,0.681273,-0.186347,0.110046,0.0677189,0.509639,0.0728248,0.111885,-0.0800953,-0.186384,0.19147,-0.197094,0.173259,0.166814
1501-BUIZINGEN,0.213445,0.350592,-0.0531464,-0.487154,-0.483031,-0.235789,-0.0930036,0.105087,-0.01313,0.0966131,0.246621,-0.1849,-0.184414,0.21391,0.313833
9160-LOKEREN,0.447782,-0.250875,0.475417,-0.214452,-0.124884,0.22411,0.21685,0.125937,-0.191026,-0.379983,0.14085,0.148443,0.193967,-0.223536,0.159664
1180-UKKEL,0.392066,0.425278,-0.0710767,-0.409916,-0.235508,-0.298951,-0.0420043,0.0251924,0.244693,0.0552543,0.376801,-0.00923041,-0.276679,0.0453937,0.247993
3910-NEERPELT,-0.17236,-0.232993,0.262873,-0.0403427,0.0526097,-0.394831,0.03732,-0.153323,0.0871938,-0.136608,0.158355,0.157462,-0.665666,0.211887,0.312367
8800-BEVEREN-ROESELARE,0.0496554,0.0269927,0.246811,0.139935,-0.154879,-0.0316037,0.699849,0.0984997,-0.129228,-0.31553,-0.105923,-0.236248,-0.279282,0.350984,0.0857363
1210-SINT-JOOST-TEN-NODE,0.580536,0.139554,-0.068026,-0.096087,0.104703,-0.480933,-0.118879,0.066314,0.319731,-0.0287936,0.287011,0.121419,-0.380904,0.132498,0.0776904
8400-ZANDVOORDE,0.332008,0.143816,0.494183,0.161922,0.0382555,0.185006,-0.183716,0.439169,-0.213817,-0.0569958,0.162761,-0.426179,-0.21415,0.169189,-0.0690611
2360-OUD-TURNHOUT,0.00633344,0.244612,0.0976712,-0.186967,-0.140326,0.370815,-0.0971561,-0.0237255,-0.271649,-0.38119,0.458876,-0.0390208,-0.459813,0.187095,0.22541
1731-ZELLIK,0.475636,-0.0870881,0.109457,-0.203634,-0.454021,-0.246359,-0.00560376,0.0930962,-0.0449851,0.200479,0.315515,-0.146228,-0.114744,0.152318,0.487542
9200-DENDERMONDE,0.531707,-0.234631,0.256783,0.0297677,-0.319191,0.0673829,0.244144,-0.0206253,-0.320884,-0.14233,0.313872,0.0571001,0.0214568,-0.075893,0.444677
8670-OOSTDUINKERKE,0.368244,0.514751,0.580103,-0.139086,0.0619849,0.0114205,0.134291,0.163461,-0.222775,0.212165,0.00411216,0.00502206,-0.271292,0.151481,-0.0600671
8730-BEERNEM,0.340809,-0.0960344,0.369461,0.0613987,0.231685,-0.382179,0.0886342,0.262953,-0.100241,-0.338134,-0.315094,-0.239809,-0.238461,0.26461,-0.222619
2170-MERKSEM,0.334465,-0.120776,-0.0720898,-0.408994,0.0636539,0.159165,0.0894335,0.145877,-0.0960911,-0.0674599,-0.287336,0.218252,-0.635149,-0.0543847,-0.303409
3690-ZUTENDAAL,-0.140543,-0.059651,0.0804672,0.173658,0.0791539,-0.2205,0.0428825,0.339494,-0.0788451,0.0716563,-0.113357,-0.198426,-0.703261,-0.394869,0.232391
3018-WIJGMAAL,0.0139904,-0.0262847,-0.0408713,-0.16203,-0.10019,-0.106966,0.0648338,0.797568,0.371066,-0.192879,0.0333995,0.16702,-0.0280783,-0.0424333,0.320779
Provincie Oost-Vlaanderen,0.603447,-0.0945149,0.358344,-0.0999266,-0.00165272,-0.338635,0.11341,-0.0408802,-0.0691824,-0.443764,0.102388,-0.078299,-0.138101,-0.349093,-0.00698964
2320-HOOGSTRATEN,0.0740104,-0.0834049,0.140068,-0.369762,0.0107587,0.337052,-0.158904,0.0161145,-0.293216,-0.351046,-0.0112554,0.226188,-0.401167,0.498771,0.147616
8510-BELLEGEM,0.0422589,0.397566,0.48572,-0.0301006,-0.528043,-0.0137153,0.24208,-0.0236866,0.185432,-0.0718458,-0.213247,-0.273894,-0.289453,-0.145734,0.00911039
3191-HEVER,0.0813561,-0.206866,-0.0485808,0.104422,-0.45016,0.0264067,-0.177053,0.561768,0.448682,-0.132148,-0.12418,-0.0590096,-0.170984,-0.098852,0.33221
3150-TILDONK,0.00471891,-0.295793,-0.238731,-0.0437629,-0.195593,-0.106675,0.0441402,0.73436,0.179087,-0.238969,-0.172017,-0.0823444,-0.0406407,-0.0941798,0.355862
8301-KNOKKE-HEIST,0.172689,-0.0902166,0.479564,0.242786,0.00721937,0.0322045,-0.234213,0.455229,0.2216,-0.101134,-0.337014,-0.189395,-0.270355,-0.225563,-0.277813
3360-BIERBEEK,-0.0370482,-0.108939,0.0870034,-0.353006,0.0250751,-0.0373298,0.158803,0.808447,0.148212,-0.0655795,0.0915909,-0.0212192,0.0916838,-0.0242115,0.360072
8620-NIEUWPOORT,0.306205,0.470043,0.587379,-0.0671591,0.0516554,0.0581946,0.0213965,0.291098,-0.279384,0.241538,0.0475436,-0.0369742,-0.251945,0.198012,-0.0425891
3111-WEZEMAAL,-0.102717,-0.11638,0.0742608,-0.225231,-0.418142,-0.0974963,0.0803145,0.712937,0.22235,-0.202681,0.0575701,0.166196,0.136721,0.130063,0.25203
3560-LUMMEN,-0.350516,-0.0693584,0.204594,0.0204568,-0.119431,-0.355879,-0.0625218,0.517769,-0.130056,-0.0631229,0.33522,-0.0248465,-0.458086,-0.26223,0.0681756
9940-EVERGEM,0.337343,0.00699967,0.315587,-0.190662,0.264701,-0.340281,-0.0428138,0.103817,-0.128068,-0.484299,-0.360382,0.252421,0.0138534,-0.266815,0.189248
Regio Overpelt - Hamont-Achel - Lommel,-0.175525,-0.2168,0.251076,0.0798517,0.158109,-0.326368,0.122927,-0.071316,-0.0188063,-0.188034,0.243455,0.124891,-0.723515,0.0561782,0.252692
1730-ASSE,0.525085,-0.202069,0.0792615,-0.223927,-0.279612,-0.225114,0.226428,0.165923,-0.122909,0.21144,0.257881,-0.196325,-0.0726585,0.0995217,0.489209
8906-ELVERDINGE,0.0449427,0.11133,0.534802,-0.290757,-0.0328587,-0.079136,0.467506,0.330301,-0.141236,0.101117,-0.428131,0.176323,-0.0514796,0.173833,0.0510281
1970-WEZEMBEEK-OPPEM,0.347885,0.0670316,-0.106503,-0.505247,0.0353222,-0.0164099,0.31142,0.302452,0.282653,0.0263997,0.122435,-0.120262,-0.121591,0.0596938,0.53805
1860-MEISE,0.511298,-0.298229,0.145951,0.11269,-0.369585,-0.115674,-0.000396842,0.174904,0.215015,0.239555,0.154848,-0.0904323,-0.235346,0.120625,0.478912
8860-LENDELEDE,-0.0642171,0.221997,0.385391,0.0653549,-0.447599,-0.197908,0.528996,0.0469282,0.014277,-0.293385,-0.22058,-0.238981,-0.254408,0.102296,0.0707879
9950-WAARSCHOOT,0.276438,-0.204658,0.348833,-0.100362,0.190212,-0.270991,-0.16118,0.18667,-0.102317,-0.61714,-0.411458,0.10931,0.0116238,-0.0677584,0.0468592
3090-OVERIJSE,0.165161,0.295857,0.00184258,-0.333466,0.075675,0.0270288,0.106447,0.340747,0.358408,-0.10832,0.160773,-0.0541148,-0.177651,0.171224,0.640506
3770-RIEMST,-0.0463911,0.108038,0.139673,-0.0288249,0.244333,-0.209813,0.146684,0.312313,-0.25377,0.174439,-0.0840426,-0.0390052,-0.603703,-0.519315,0.0741784
2900-SCHOTEN,0.305722,-0.0966332,-0.133582,-0.458803,-0.00220103,0.252989,0.0883923,0.137141,-0.294654,-0.0574991,-0.209076,0.121347,-0.622908,0.035266,-0.200995
8501-HEULE,-0.0741015,0.402884,0.446138,-0.0208929,-0.468179,-0.0797645,0.404218,0.0505682,0.211665,-0.171577,-0.237822,-0.113536,-0.30823,-0.0476562,0.0156924
2970-SCHILDE,0.150599,0.014344,-0.271056,-0.288293,-0.152758,0.239185,-0.080555,0.135705,-0.396536,-0.217889,-0.326471,-0.0704004,-0.616031,-0.00722543,-0.138847
2520-OELEGEM,0.00532606,-0.293287,-0.0370775,-0.17907,-0.359485,0.18559,-0.245404,0.31457,-0.164146,-0.222915,-0.354408,0.105388,-0.490954,0.0838623,-0.310239
9200-SINT-GILLIS-BIJ-DENDERMONDE,0.39602,-0.335805,0.481599,0.0534419,-0.252147,0.0235399,0.0688469,0.0113071,-0.262911,0.0662277,0.0697588,0.127817,0.00460366,-0.104552,0.56652
9100-NIEUWKERKEN-WAAS,0.241254,-0.233661,0.329714,-0.0502131,3.24907e-05,0.298932,0.551219,-0.0112362,-0.0864491,-0.190549,0.366625,0.153797,-0.147461,-0.38725,0.0952902
9930-ZOMERGEM,0.338608,-0.1712,0.201479,-0.0269894,0.210744,-0.475397,-0.0179416,0.220846,-0.0486717,-0.641882,-0.262154,0.0131079,0.00326786,-0.0856515,-0.0676699
9200-OUDEGEM,0.352267,-0.343401,0.493931,-0.0452875,-0.317536,-0.0803899,0.000908981,0.0453504,-0.378311,0.145197,0.00509635,0.228859,0.0494822,0.0511398,0.42538
1082-SINT-AGATHA-BERCHEM,0.545583,0.14542,-0.0197545,-0.459615,-0.165038,-0.20649,0.25708,0.092079,0.0963392,0.252708,0.380333,0.0378463,-0.146184,-0.00800641,0.290604
9470-DENDERLEEUW,0.500738,-0.295861,0.0619314,-0.270614,-0.160064,-0.3878,-0.0835791,0.0387726,-0.368831,-0.0244754,0.186245,-0.304163,-0.0871156,0.108757,0.341918
2222-ITEGEM,-0.154401,0.0169275,-0.11231,-0.059946,-0.460873,0.0933107,-0.223037,0.610026,-0.0240654,-0.435304,-0.143392,0.277635,-0.157803,0.0459628,-0.044207
1140-EVERE,0.492549,0.141809,-0.0292738,-0.179425,-0.226062,-0.2599,0.116504,0.201704,0.511542,-0.0323043,0.352601,0.0205676,-0.192814,0.0603907,0.320986
2550-WAARLOOS,0.128749,-0.0752088,0.0490887,0.106287,-0.36048,0.366344,-0.0417677,0.065157,0.329058,-0.202853,-0.390367,0.134267,-0.492297,-0.304493,0.19749
2627-SCHELLE,0.384941,-0.329116,0.132321,0.173156,-0.472829,0.334913,0.0640718,-0.0249563,0.00917861,0.0920021,-0.0192194,0.0811533,-0.560187,-0.161777,-0.00797447
8000-BRUGGE,0.304823,-0.0360197,0.653718,-0.0707512,0.272727,-0.116957,-0.0273347,0.0391061,0.261968,-0.226422,-0.0326763,-0.212906,-0.336386,0.315348,-0.0648539
8430-MIDDELKERKE,0.228489,0.293545,0.609193,0.0470859,-0.222326,0.0938598,-0.23228,0.393164,-0.293959,0.143883,0.115151,-0.137111,-0.137567,0.222664,-0.117656
9112-SINAAI-WAAS,0.398994,-0.293564,0.388274,-0.0560986,-0.0898942,0.243412,0.34396,0.178977,-0.131664,-0.207337,-0.0515908,0.295249,0.0855242,-0.424728,0.212562
8560-WEVELGEM,-0.0661206,0.244215,0.52958,-0.167733,-0.417307,0.0288931,0.37967,0.102411,0.347069,-0.0918159,-0.265446,-0.213512,-0.188391,-0.00685166,0.131555
Regio Boom-Aartselaar,0.329535,-0.332004,0.000671229,0.102992,-0.390252,0.345341,-0.0520555,0.117234,0.0623052,-0.080677,-0.0825019,0.236884,-0.595605,-0.170751,0.159212
9340-LEDE,0.425515,-0.168878,0.254848,-0.11371,-0.185138,-0.268477,-0.123427,0.100906,-0.560771,-0.228145,0.139631,-0.0345651,0.0912109,0.0223635,0.429818
2470-RETIE,-0.0423864,0.13002,0.0751847,-0.065456,-0.180681,0.0769997,0.00131223,-0.12469,-0.170988,-0.411467,0.560687,0.182282,-0.555803,0.249356,0.00144519
3870-HEERS,-0.107066,-0.152061,0.0320603,-0.455543,0.393853,-0.337451,0.0903892,0.442082,-0.26382,0.0784358,-0.0547542,0.0228463,-0.377021,-0.247239,0.0415005
Regio Ieper - Poperinge - Wervik,-0.0135888,0.115329,0.508952,-0.440064,-0.041152,0.07231,0.460179,0.238006,-0.132113,0.0627951,-0.432458,-0.0496396,-0.123466,0.167945,-0.0645208
1160-OUDERGEM,0.300968,0.362085,0.0723237,-0.32218,-0.145079,-0.0576896,0.243018,0.120845,0.464514,0.0330573,0.426048,0.0459204,-0.215707,0.0895624,0.340884
2547-LINT,0.151116,0.0550908,-0.31699,-0.326756,-0.578315,0.171418,0.00992295,0.227531,0.0383725,-0.127287,-0.164331,0.22046,-0.322737,-0.340598,0.194233
8920-LANGEMARK,-0.0849462,0.0530897,0.608475,-0.249734,-0.125927,0.0150386,0.54705,0.201522,-0.126371,0.0240983,-0.222847,0.0728397,-0.128686,0.328389,0.0740352
9270-LAARNE,0.283219,-0.0372736,0.5008,-0.162308,-0.0680077,-0.177234,0.0761587,-0.0121702,-0.463623,-0.4218,0.144546,0.213879,0.1258,-0.189525,0.296688
9230-WETTEREN,0.362275,-0.0515867,0.331795,-0.246738,-0.0153903,-0.273148,0.13424,0.00560514,-0.489479,-0.408451,0.169504,0.0287907,0.112943,-0.162824,0.356342
8940-GELUWE,-0.222811,0.135512,0.517312,-0.169812,-0.282113,0.060541,0.406341,0.299826,0.12238,0.00828651,-0.465255,-0.083762,-0.148005,0.0127878,0.191545
2370-ARENDONK,-0.119963,0.0724333,0.335187,-0.272457,0.028571,0.28112,-0.173703,-0.0876405,-0.108865,-0.451975,0.416099,0.118077,-0.4943,0.16823,0.0152831
3665-AS,-0.209517,-0.112358,0.0648185,0.084666,0.0601256,-0.276385,-0.0201278,0.167381,-0.216242,-0.105518,-0.166417,-0.225795,-0.634495,-0.326696,0.421659
8210-LOPPEM,0.498396,0.310298,0.30892,0.119252,0.145293,-0.190191,0.0644909,0.165436,-0.21239,-0.357643,-0.128054,-0.222614,-0.316638,0.322685,-0.116172
2260-TONGERLO,-0.167958,-0.153757,0.00897369,0.0138412,-0.16147,-0.0131358,-0.0286112,0.420187,0.098837,-0.50327,0.250771,0.532069,-0.278502,0.236224,0.0430958
2430-EINDHOUT,-0.348136,-0.253104,0.216303,-0.0377944,-0.197586,0.0103961,-0.0591424,0.414092,-0.0869338,-0.303562,0.284151,0.376544,-0.408543,0.152257,-0.200206
1120-NEDER-OVER-HEEMBEEK,0.450362,0.0898402,0.153554,0.0600477,-0.268572,-0.0817217,0.00723987,0.235641,0.448093,0.232078,0.294035,-0.152193,-0.374115,-0.045263,0.348214
2845-NIEL,0.23006,-0.465284,0.0287998,0.116391,-0.355206,0.280903,0.0991344,-0.125057,0.21043,-0.14527,-0.144268,0.0322618,-0.56755,-0.159449,0.22558
Regio Bornem - Puurs - Willebroek,0.308592,-0.562427,0.117793,0.0417249,-0.345084,0.293509,0.0144489,-0.0278034,0.163619,-0.250631,0.0647441,0.0636689,-0.400308,-0.258837,0.203819
3680-OPOETEREN,-0.0837615,-0.327762,-0.0129866,0.233642,-0.025728,-0.144383,-0.0237579,0.181994,-0.282993,-0.0690821,-0.261612,-0.1197,-0.5413,-0.12379,0.547402
1620-DROGENBOS,0.325814,0.32936,-0.129579,-0.23432,-0.465737,-0.303422,-0.146269,0.126432,0.0762633,0.0268544,0.384635,-0.180683,-0.212747,0.18606,0.316715
1745-OPWIJK,0.46277,-0.362008,0.334337,0.00160282,-0.23009,0.00473196,-0.0775588,0.176379,-0.181002,0.272485,0.226408,0.000437715,-0.0825302,0.101196,0.526877
3202-RILLAAR,-0.284857,-0.262288,0.206237,-0.0923135,-0.319022,0.0039486,0.0160588,0.783072,0.0521525,-0.174905,0.180519,-0.0206658,0.0691714,0.10187,0.0476326
2260-WESTERLO,-0.293632,-0.126793,0.0959209,0.151076,-0.240243,0.0857493,-0.0995124,0.484256,-0.0248585,-0.539118,0.190343,0.307065,-0.345528,0.115496,-0.0410788
2500-KONINGSHOOIKT,0.240638,0.0469943,-0.131078,-0.0118736,-0.51213,0.0666253,-0.430542,0.489671,0.053793,-0.335638,-0.117648,0.202013,-0.110833,-0.186108,-0.116551
1850-GRIMBERGEN,0.400094,-0.290665,0.0611271,-0.0614585,-0.455081,-0.0723337,0.067549,0.283448,0.295598,0.238514,0.0834171,-0.22429,-0.170246,0.0224307,0.46869
1760-ROOSDAAL,0.462137,-0.0556527,0.10486,-0.628705,-0.142097,-0.272516,-0.00864737,0.181067,-0.276056,0.203543,0.112487,-0.189828,0.0153795,0.0508681,0.283903
NL-6166GD-GELEEN,0.0538766,0.0925304,-0.112228,0.425842,0.17786,0.012579,0.296315,0.11423,-0.144616,-0.188206,-0.0575994,-0.309576,-0.579642,-0.207632,0.356889
8470-GISTEL,0.352383,0.412435,0.541677,0.0364356,-0.120359,0.11264,-0.0600374,0.356477,-0.189877,-0.133085,-0.00452666,-0.0388973,-0.141037,0.41783,-0.0579238
9170-SINT-GILLIS-WAAS,0.34554,-0.464982,0.393974,0.00266385,0.107182,0.199611,0.201848,0.153332,-0.128882,-0.218542,0.354822,0.0109825,-0.0934476,-0.417905,-0.140777
8780-OOSTROZEBEKE,-0.0633974,0.0181497,0.416716,0.235974,-0.454279,-0.157496,0.365885,-0.0021445,-0.064323,-0.457608,-0.252733,-0.264646,-0.22888,-0.0362872,-0.0103521
8600-DIKSMUIDE,0.162253,0.342389,0.570231,-0.207826,-0.142017,-0.0473541,0.244694,0.251086,-0.220771,0.0832953,-0.0571963,0.166857,-0.132003,0.47122,-0.128432
3650-DILSEN,-0.0776154,-0.239253,-0.132077,-0.078992,0.0413343,-0.273714,0.103912,0.00220326,-0.112518,-0.0165112,-0.0765893,-0.186155,-0.613768,-0.215567,0.590751
3545-HALEN,-0.456767,-0.0586571,0.253143,-0.233413,-0.173009,-0.359227,-0.101594,0.599218,-0.155271,0.0669618,0.162421,-0.0504537,-0.275941,-0.00930019,0.0851517
3140-KEERBERGEN,0.00967129,-0.086512,-0.206408,0.077253,-0.476098,-0.0718593,-0.161589,0.669067,0.174193,-0.287189,-0.213035,-0.0184987,-0.0453452,-0.0455461,0.274911
2322-MINDERHOUT,0.0429623,-0.179869,0.0471449,-0.256657,0.0365395,0.45432,0.0524833,0.0819956,-0.289053,-0.327198,0.0211226,-0.160275,-0.440021,0.458884,0.244027
1083-GANSHOREN,0.388609,0.111916,0.0816185,-0.209194,-0.40476,-0.207147,0.289154,-0.00392189,0.32735,0.25435,0.430808,-0.144434,-0.302351,0.0262436,0.158916
3630-MAASMECHELEN,-0.108667,-0.0639277,-0.0291737,0.204386,-0.164679,-0.216705,-0.0695476,0.238829,-0.365387,0.209701,-0.196502,-0.287371,-0.639226,-0.153349,0.27335
9111-BELSELE,0.336494,-0.390998,0.513904,-0.0476813,-0.00453721,0.183291,0.296513,0.0379628,-0.0638516,-0.184464,0.277836,0.187365,-0.056498,-0.412776,0.143408
2400-MOL,-0.123068,-0.230878,0.264729,-0.0333401,-0.159878,0.0355882,-0.224204,0.0158655,-0.0207798,-0.196424,0.497941,0.0891585,-0.654844,0.207822,-0.12685
EC2A-2DT-London,0.399747,0.304054,-0.0331896,-0.206715,0.0186007,-0.256167,0.531281,0.243088,0.0953784,0.0751322,0.411508,0.182738,-0.255094,0.116596,-0.0214583
2160-WOMMELGEM,0.303248,-0.0354298,-0.211017,-0.31504,-0.293255,0.183825,-0.0505735,0.171352,-0.209247,-0.215647,-0.244717,0.187996,-0.578451,-0.223061,-0.203515
9120-VRASENE,0.234146,-0.239497,0.348791,-0.16137,-0.0126267,0.322309,0.429659,0.0735246,-0.254876,-0.163221,0.139136,0.142991,-0.139867,-0.527012,-0.131732
3210-LINDEN,-0.0440607,-0.221367,0.0953018,-0.0430702,-0.0244772,-0.0997557,0.142169,0.823288,0.0680924,-0.158458,0.107761,0.0498105,0.140511,-0.0182223,0.406987
Regio Brugge,0.491431,0.122614,0.36144,0.211106,0.114544,-0.205825,0.128741,0.354384,-0.0319934,-0.165658,-0.209356,-0.302498,-0.329222,0.176681,-0.259243
9991-ADEGEM,0.259157,-0.344726,0.384282,0.0621202,0.236717,-0.252597,-0.125561,0.343724,-0.100835,-0.538812,-0.255716,-0.144394,-0.0386282,-0.0163029,-0.142242
9850-NEVELE,0.2577,0.0363516,0.249687,-0.0087644,-0.130635,-0.41796,0.0180639,0.0878174,-0.0240417,-0.772229,-0.20382,-0.0397597,0.0145249,-0.168068,-0.0394585
2240-VIERSEL,-0.110338,0.199748,-0.140242,-0.205278,-0.492664,0.160061,-0.319793,0.253689,-0.235877,-0.280992,-0.347383,0.0326503,-0.412777,-0.0236383,-0.154526
Regio Londerzeel,0.358497,-0.603937,0.0591524,0.0862184,-0.433593,0.0359035,0.135389,0.245766,-0.017396,0.0438573,0.0567924,-0.115013,-0.0616616,-0.0641957,0.448533
2100-DEURNE,0.329908,-0.0317307,-0.125584,-0.386634,-0.167921,0.253392,0.0627335,0.165939,-0.186338,-0.0370697,-0.0909345,0.140739,-0.630929,-0.0649303,-0.366825
9520-BAVEGEM,0.282508,-0.0156147,0.307591,-0.278366,-0.271586,-0.300988,-0.0899793,-0.148184,-0.478658,-0.345868,0.177812,-0.171608,-0.00593998,-0.218823,0.309378
1653-DWORP,0.163009,0.538971,-0.00855796,-0.427722,-0.513205,-0.0943383,-0.0636086,0.102128,-0.0899067,0.118125,0.21362,-0.116522,-0.123168,0.098931,0.327045
2460-KASTERLEE,-0.0901964,0.10773,0.0208492,-0.217128,-0.0628668,0.215553,-0.185917,0.146791,-0.222548,-0.498816,0.451353,0.16398,-0.520137,0.145194,0.0746563
2870-BREENDONK,0.371273,-0.484448,0.112911,0.224788,-0.37929,0.321916,-0.0490008,0.0139678,0.0667737,-0.0829051,0.0466204,0.0164834,-0.372335,-0.156821,0.370267
9860-OOSTERZELE,0.117404,-0.0884596,0.297423,-0.523045,-0.104667,-0.329392,0.0118737,0.0134927,-0.473806,-0.376018,0.0873,-0.0940061,0.114622,-0.246322,0.201059
Regio Kortrijk,-9.12828e-05,0.272138,0.537339,-0.0377511,-0.455009,-0.149052,0.335937,-0.0137016,0.331384,-0.231671,-0.135017,-0.183746,-0.263828,-0.0661434,-0.0635046
3930-HAMONT-ACHEL,-0.0765979,-0.171755,0.264757,0.0247371,0.233275,-0.27149,0.0662369,-0.148843,-0.301501,-0.214017,0.182003,0.176646,-0.653961,0.0589893,0.32723
9308-GIJZEGEM,0.417533,-0.375142,0.268613,-0.0973248,-0.221754,-0.135489,0.0834476,0.0426425,-0.478927,-0.086779,0.125886,0.0025205,0.046951,-0.00298941,0.521562
1120-NEDER-OVER-HEEMBEEK (BRUSSEL-STAD),0.54493,0.0163443,-0.14149,-0.103476,0.019895,-0.247071,0.239101,0.24639,0.29929,-0.107806,0.497543,0.0462491,-0.219726,0.099414,0.289298
9990-MALDEGEM,0.400069,-0.194003,0.257365,-0.0141018,0.163105,-0.255809,-0.185665,0.3538,-0.088424,-0.488709,-0.412302,-0.150662,-0.0567752,0.0577497,-0.19565
9120-BEVEREN-WAAS,0.3528,-0.396108,0.263927,-0.157232,0.0643118,0.272778,0.423734,-0.0277514,-0.04065,-0.214239,0.184786,-0.0265207,-0.235724,-0.467579,-0.093759
9050-LEDEBERG,0.44016,0.347097,0.277934,-0.209632,0.0708513,-0.263973,0.0473674,0.019843,-0.140003,-0.572896,0.0184126,0.18083,0.0350977,-0.261684,0.191552
8790-WAREGEM,0.056327,0.0611249,0.439419,-0.046929,-0.445979,-0.299743,0.282766,-0.184005,0.160216,-0.306149,-0.181401,-0.328701,-0.300938,-0.137828,-0.159167
2860-SINT-KATELIJNE-WAVER,0.198263,-0.256763,-0.200406,0.0664656,-0.541293,0.191164,-0.243126,0.502799,0.0769037,-0.175102,-0.242649,-0.108659,-0.281762,-0.115673,0.0932497
9140-TEMSE,0.333122,-0.606195,0.335237,-0.0303484,-0.129982,0.221263,0.361508,0.0831496,-0.00729167,-0.197991,0.0482083,0.102058,-0.0864481,-0.357286,0.132956
2990-LOENHOUT,0.0421145,-0.10002,-0.0160077,-0.442053,0.201842,0.397879,0.0606116,0.181325,-0.470082,-0.21699,-0.22246,0.00869469,-0.40417,0.226472,0.157117
2812-MUIZEN,0.284368,-0.280655,-0.189807,0.172913,-0.238038,0.1515,-0.218476,0.561553,0.204536,-0.222977,-0.224835,-0.0735467,-0.229956,0.0589568,0.357609
1910-KAMPENHOUT,0.174828,-0.12136,-0.0735477,-0.021469,-0.323404,0.0920555,-0.185034,0.672606,0.299931,-0.15877,-0.0602967,-0.0390574,-0.0844569,-0.0229283,0.470266
Regio Knokke - Blankenberge - Zeebrugge,0.238276,0.0153185,0.561433,0.208235,0.0738766,-0.0197001,-0.082778,0.429004,0.11346,-0.16877,-0.295191,-0.282707,-0.305292,-0.00781513,-0.293252
1851-HUMBEEK,0.334289,-0.26526,0.0304932,0.213347,-0.363684,0.141421,-0.0959502,0.283297,0.196322,0.200614,0.112584,-0.253696,-0.282779,-0.0191279,0.54181
Regio Maaseik - Bree,-0.184511,-0.267337,0.040954,0.133562,0.0502174,-0.323606,0.0420291,0.0702271,-0.180914,-0.133333,-0.129531,-0.0725799,-0.653428,-0.0138453,0.511192
2235-HULSHOUT,-0.208727,-0.0985114,0.0247291,-0.0591063,-0.415071,-0.00795359,0.0612055,0.54142,0.0146881,-0.321756,0.0349817,0.5312,-0.141591,0.243971,-0.0817673
9800-ASTENE,0.404563,0.167912,0.377096,-0.122374,-0.212738,-0.348849,0.310699,-0.00383665,0.0352503,-0.541286,-0.0408451,-0.17222,0.0509442,-0.243364,-0.0085313
3740-BILZEN,-0.0748044,0.17474,0.0937025,0.141752,0.23068,-0.339136,0.185233,0.41668,-0.314719,0.13418,-0.0915086,0.104499,-0.54998,-0.326626,0.115448
8920-LANGEMARK-POELKAPELLE,-0.0500032,0.0360011,0.484929,-0.226805,-0.125681,0.0506472,0.541863,0.338975,-0.311935,0.002797,-0.343719,-0.0055442,-0.0391435,0.25617,0.0093323
2180-EKEREN,0.429252,-0.2238,-0.0866198,-0.424929,0.144341,0.182582,0.107743,0.272484,-0.25397,0.072882,-0.189699,0.167719,-0.498349,0.0406531,-0.231578
9820-MERELBEKE,0.403472,0.157961,0.321076,-0.262017,-0.0210255,-0.381886,0.00052261,-0.0190307,-0.130775,-0.591166,-0.014935,0.0134314,0.0281751,-0.296241,0.195804
9030-MARIAKERKE,0.457686,0.298204,0.334992,-0.170597,0.115813,-0.370862,-0.010916,0.0312842,-0.0355871,-0.447719,-0.211367,0.275279,-0.00282573,-0.253661,0.14731
9680-MAARKEDAL,-0.0510028,-0.105513,0.335872,-0.419825,-0.283106,-0.277266,0.120199,-0.164578,-0.143119,-0.179204,0.00120792,-0.457264,-0.163964,-0.457321,-0.030455
1981-HOFSTADE,0.377467,-0.230481,-0.197621,0.196137,-0.556022,-0.0204197,-0.171397,0.41897,0.0900792,-0.122143,-0.225349,-0.128084,-0.17815,0.189564,0.233432
9660-BRAKEL,0.171591,-0.101965,0.210231,-0.534571,-0.341557,-0.412688,-0.0395063,-0.0992294,-0.218311,-0.0324658,-0.260765,-0.311681,-0.0659415,-0.307131,0.138858
3500-SINT-LAMBRECHTS-HERK,-0.328445,0.128862,-0.0353485,-0.281778,0.0734987,-0.420054,0.123411,0.4748,-0.405881,-0.0196502,0.0704925,-0.0206121,-0.424842,-0.146012,-0.00518975
2520-BROECHEM,0.142704,0.294596,-0.360352,-0.265424,-0.338672,0.130186,-0.167743,0.374905,-0.330643,-0.209725,-0.232422,0.213518,-0.306907,-0.211966,-0.012882
8930-REKKEM,-0.191961,0.419542,0.319183,-0.0825663,-0.242474,0.0257094,0.482248,0.170697,0.202951,0.0825349,-0.288583,-0.186015,-0.397462,-0.156334,0.0947903
8680-KOEKELARE,0.149855,0.223109,0.602593,0.0368928,-0.0688641,-0.0300261,0.0498126,0.268456,-0.36804,-0.0926007,-0.0647037,-0.0517213,-0.174384,0.548508,0.0305302
3700-TONGEREN,-0.115374,-0.244167,0.140297,-0.126294,0.162848,-0.496188,0.136481,0.308747,0.0177523,0.252525,0.00100223,-0.202558,-0.598409,-0.172044,-0.109349
8810-LICHTERVELDE,0.124617,0.0351816,0.43341,0.185054,-0.146598,-0.0570798,0.42168,0.203361,-0.129968,-0.311649,-0.132338,-0.171752,-0.265362,0.533451,-0.0347675
2560-NIJLEN,-0.107341,0.142516,-0.236678,-0.214814,-0.533248,0.116529,-0.237979,0.341882,-0.219749,-0.358846,-0.208799,0.266919,-0.277014,-0.148229,-0.0628107
ES-29730-RINCON DE LA VICTORIA - MALAGA,0.266424,0.225525,-0.107961,0.124101,0.0931867,-0.346091,0.33144,0.115487,0.0729863,-0.325063,0.246508,0.255527,-0.421598,0.270021,0.334272
Regio Leuven,0.0426762,0.0983697,-0.0453787,-0.365882,0.120414,-0.106896,0.148645,0.771704,0.250577,-0.1037,0.129781,0.0248127,-0.0103862,-0.156412,0.305698
Regio Ninove - Geraardsbergen - Zottegem,0.366533,-0.134235,0.0957545,-0.40704,-0.30865,-0.407264,-0.188244,-0.125545,-0.427175,-0.143949,-0.009067,-0.294197,-0.120674,-0.165168,0.16965
9240-ZELE,0.369499,-0.342896,0.43326,0.0450537,-0.149987,-0.0598226,0.217671,-0.0108681,-0.323526,-0.0688474,0.0236186,0.250023,0.0102695,-0.374493,0.412003
2960-SINT-JOB-IN-'T-GOOR,0.0424114,-0.0249208,-0.169747,-0.563279,-0.0368648,0.288222,0.144332,0.11728,-0.428447,-0.0540022,-0.207657,0.0190746,-0.507073,0.200461,0.0720378
9150-KRUIBEKE,0.310197,-0.310082,0.290425,-0.131842,-0.100001,0.338059,0.386409,-0.018616,-0.00546002,-0.150969,0.0987397,0.0893078,-0.263866,-0.567253,0.00269045
Regio Kontich - Mortsel - Ranst,0.142797,-0.137045,-0.136027,-0.165614,-0.472947,0.254611,-0.041887,0.15127,0.031408,-0.327641,-0.297192,0.163502,-0.540077,-0.249592,-0.156155
2940-STABROEK,0.298476,-0.425983,-0.0618224,-0.276175,0.225296,0.126077,0.136455,0.245365,-0.300302,-0.0403635,-0.282171,0.196417,-0.487713,0.175353,-0.158921
3460-BEKKEVOORT,-0.32299,-0.131123,0.276248,-0.210134,-0.274231,-0.125383,-0.032423,0.757894,-0.0489781,-0.0125233,0.263195,0.00555599,0.0295462,0.0209986,0.135881
